{"learner":{"attributes":{"scikit_learn":"{\"_estimator_type\": \"regressor\"}"},"feature_names":["temperature_2m_mean","precipitation_sum","wind_speed_10m_max","wind_direction_10m_dominant"],"feature_types":["float","float","float","float"],"gradient_booster":{"model":{"gbtree_model_param":{"num_parallel_tree":"1","num_trees":"100"},"iteration_indptr":[0,1,2,3,4,5,6,7,8,9,10,11,12,13,14,15,16,17,18,19,20,21,22,23,24,25,26,27,28,29,30,31,32,33,34,35,36,37,38,39,40,41,42,43,44,45,46,47,48,49,50,51,52,53,54,55,56,57,58,59,60,61,62,63,64,65,66,67,68,69,70,71,72,73,74,75,76,77,78,79,80,81,82,83,84,85,86,87,88,89,90,91,92,93,94,95,96,97,98,99,100],"tree_info":[0,0,0,0,0,0,0,0,0,0,0,0,0,0,0,0,0,0,0,0,0,0,0,0,0,0,0,0,0,0,0,0,0,0,0,0,0,0,0,0,0,0,0,0,0,0,0,0,0,0,0,0,0,0,0,0,0,0,0,0,0,0,0,0,0,0,0,0,0,0,0,0,0,0,0,0,0,0,0,0,0,0,0,0,0,0,0,0,0,0,0,0,0,0,0,0,0,0,0,0],"trees":[{"base_weights":[-1.5344908E-6,5.7112484E0,-4.0213404E0,8.058032E-1,7.8421936E0,-1.2659254E1,-3.1788104E0,6.7982874E0,-1.3831139E0,1.4654185E1,6.6951814E0,-1.6893448E1,-6.6317546E-1,-2.3743203E0,-9.789329E0,1.1988164E1,-1.4976588E-1,2.0437045E0,-3.967376E0,1.9173138E1,7.68507E0,9.197201E0,3.7498095E0,-1.4166291E1,-2.1346422E1,-2.4407775E0,6.507522E0,-9.132859E-1,-5.8642364E0,7.9466246E-2,-1.1537342E1,8.395637E0,2.4710882E1,-5.166337E0,1.42410555E1,-4.879141E-1,1.4063523E1,-1.4570153E0,-7.0962124E0,5.2976433E-2,2.1370249E1,1.0519201E1,1.2459753E0,1.0129907E1,-3.6239002E0,1.7355189E0,7.766664E0,-1.1746103E1,-5.2653465E0,-2.1671127E1,-2.5483453E0,-3.2285163E-1,-8.765205E0,1.156291E1,-3.2483451E0,-6.638074E0,1.0860376E0,-6.0636277E0,6.845612E0,-2.5071282E0,8.551655E0,-1.002854E1,-6.656322E0,6.7706122E0,2.1761231E0,8.072317E0,-1.236259E0,-3.1976361E0,2.1939518E-2,6.5355396E0,7.5212765E-1,-1.2644196E0,4.6763125E-1,2.3761082E0,8.299047E0,-6.9937545E-1,3.7092707E0,-2.9293811E0,-8.813687E-1,2.1956117E0,-1.0759531E0,4.742102E0,8.086352E0,3.4720662E0,-9.543884E-1,-1.6130935E0,3.2022066E0,2.3370838E0,4.3737025E0,1.8664135E0,-1.7401005E0,1.2770679E0,-7.58351E-1,4.444035E0,-1.432286E0,-3.6816125E0,2.8137412E0,-2.7483454E0,-6.5946255E0,-9.142764E-1,2.6740472E0,-4.2938834E-1,-3.400953E0,-1.0862589E0,4.1740475E0,-2.0654776E0,4.7456117E0,1.0978793E0,-1.1236314E0,-2.9787831E0,-1.3177593E0,4.441986E0,-1.6217413E0,-2.174748E0,-4.197554E0],"categories":[],"categories_nodes":[],"categories_segments":[],"categories_sizes":[],"default_left":[0,0,0,0,0,0,0,0,0,0,0,0,0,0,0,0,0,0,0,0,0,0,0,0,0,0,0,0,0,0,0,0,0,0,0,0,0,0,0,0,0,0,0,0,0,0,0,0,0,0,0,0,0,0,0,0,0,0,0,0,0,0,0,0,0,0,0,0,0,0,0,0,0,0,0,0,0,0,0,0,0,0,0,0,0,0,0,0,0,0,0,0,0,0,0,0,0,0,0,0,0,0,0,0,0,0,0,0,0,0,0,0,0,0,0],"id":0,"left_children":[1,3,5,7,9,11,13,15,17,19,21,23,25,27,29,31,33,35,37,39,41,43,45,47,49,51,53,55,57,59,61,63,65,67,69,71,73,75,77,79,81,83,85,87,89,91,93,95,-1,97,-1,99,101,103,-1,105,107,109,-1,111,-1,113,-1,-1,-1,-1,-1,-1,-1,-1,-1,-1,-1,-1,-1,-1,-1,-1,-1,-1,-1,-1,-1,-1,-1,-1,-1,-1,-1,-1,-1,-1,-1,-1,-1,-1,-1,-1,-1,-1,-1,-1,-1,-1,-1,-1,-1,-1,-1,-1,-1,-1,-1,-1,-1],"loss_changes":[8.9547836E4,1.683384E4,1.6611137E4,6.42364E3,8.676375E3,1.0299922E4,1.1070307E4,4.7255947E3,3.1873394E3,4.923039E3,7.0622227E3,1.5191953E3,7.042024E2,9.483675E3,3.8995938E3,3.22054E3,4.188551E3,4.723449E3,1.599835E3,4.073754E3,1.1730938E3,6.255035E3,3.5789746E3,5.802754E2,4.54375E1,5.8653564E2,1.0892067E3,1.5035417E4,3.278164E3,2.6449001E3,2.8628027E3,8.0734033E2,1.1243018E3,1.2382126E3,1.2732114E3,9.90533E2,2.0366592E3,1.4183733E3,9.810498E2,3.1712735E2,2.2767188E3,6.868506E2,1.3686655E3,4.9349023E3,8.0747986E2,3.2033662E3,1.3149985E4,7.70624E2,0E0,4.7910156E0,0E0,8.8282886E2,1.9120905E2,3.7159485E2,0E0,1.9937012E3,1.2124511E4,3.4834746E3,0E0,1.736211E3,0E0,1.7712109E3,0E0,0E0,0E0,0E0,0E0,0E0,0E0,0E0,0E0,0E0,0E0,0E0,0E0,0E0,0E0,0E0,0E0,0E0,0E0,0E0,0E0,0E0,0E0,0E0,0E0,0E0,0E0,0E0,0E0,0E0,0E0,0E0,0E0,0E0,0E0,0E0,0E0,0E0,0E0,0E0,0E0,0E0,0E0,0E0,0E0,0E0,0E0,0E0,0E0,0E0,0E0,0E0,0E0],"parents":[2147483647,0,0,1,1,2,2,3,3,4,4,5,5,6,6,7,7,8,8,9,9,10,10,11,11,12,12,13,13,14,14,15,15,16,16,17,17,18,18,19,19,20,20,21,21,22,22,23,23,24,24,25,25,26,26,27,27,28,28,29,29,30,30,31,31,32,32,33,33,34,34,35,35,36,36,37,37,38,38,39,39,40,40,41,41,42,42,43,43,44,44,45,45,46,46,47,47,49,49,51,51,52,52,53,53,55,55,56,56,57,57,59,59,61,61],"right_children":[2,4,6,8,10,12,14,16,18,20,22,24,26,28,30,32,34,36,38,40,42,44,46,48,50,52,54,56,58,60,62,64,66,68,70,72,74,76,78,80,82,84,86,88,90,92,94,96,-1,98,-1,100,102,104,-1,106,108,110,-1,112,-1,114,-1,-1,-1,-1,-1,-1,-1,-1,-1,-1,-1,-1,-1,-1,-1,-1,-1,-1,-1,-1,-1,-1,-1,-1,-1,-1,-1,-1,-1,-1,-1,-1,-1,-1,-1,-1,-1,-1,-1,-1,-1,-1,-1,-1,-1,-1,-1,-1,-1,-1,-1,-1,-1],"split_conditions":[1.7727943E1,5.6537193E1,3.4942505E0,1.1874544E1,1.0144082E1,3E-1,1.8599998E1,1.9001753E1,1.4280918E1,1.6738E1,2.387363E2,3.1104082E1,3.485231E2,3.2389243E2,9.864249E0,1.6000001E0,2.5462166E1,3.6999998E0,2.8999999E0,2.7588336E0,2.7416537E2,1.08E1,1.2E0,3.4073654E2,3.3788328E0,1.47E1,2.8001427E1,6.2427563E1,1.7599998E1,9.477584E0,5.84E1,1.7520165E0,9.600002E0,2.3007715E1,1.0365251E1,5.2421665E0,1.0320499E1,2.788592E1,2.301425E1,3.1499966E2,1E-1,1.0086427E1,9.793059E0,1.8019228E2,1.210157E1,3.4587314E2,1.5967167E1,3.0962095E1,-5.2653465E0,5.7868576E-1,-2.5483453E0,8.000001E0,7.788332E-1,4E-1,-3.2483451E0,2.9194246E1,2.3808836E1,6.2234178E0,6.845612E0,2.9764578E2,8.551655E0,1.9161441E2,-6.656322E0,6.7706122E0,2.1761231E0,8.072317E0,-1.236259E0,-3.1976361E0,2.1939518E-2,6.5355396E0,7.5212765E-1,-1.2644196E0,4.6763125E-1,2.3761082E0,8.299047E0,-6.9937545E-1,3.7092707E0,-2.9293811E0,-8.813687E-1,2.1956117E0,-1.0759531E0,4.742102E0,8.086352E0,3.4720662E0,-9.543884E-1,-1.6130935E0,3.2022066E0,2.3370838E0,4.3737025E0,1.8664135E0,-1.7401005E0,1.2770679E0,-7.58351E-1,4.444035E0,-1.432286E0,-3.6816125E0,2.8137412E0,-2.7483454E0,-6.5946255E0,-9.142764E-1,2.6740472E0,-4.2938834E-1,-3.400953E0,-1.0862589E0,4.1740475E0,-2.0654776E0,4.7456117E0,1.0978793E0,-1.1236314E0,-2.9787831E0,-1.3177593E0,4.441986E0,-1.6217413E0,-2.174748E0,-4.197554E0],"split_indices":[2,3,0,2,2,1,1,0,0,0,3,2,3,3,0,1,0,1,1,0,3,1,1,3,0,1,2,3,1,0,1,3,1,3,2,0,0,0,0,3,1,2,2,3,2,3,0,2,0,3,0,1,0,1,0,0,0,0,0,3,0,3,0,0,0,0,0,0,0,0,0,0,0,0,0,0,0,0,0,0,0,0,0,0,0,0,0,0,0,0,0,0,0,0,0,0,0,0,0,0,0,0,0,0,0,0,0,0,0,0,0,0,0,0,0],"split_type":[0,0,0,0,0,0,0,0,0,0,0,0,0,0,0,0,0,0,0,0,0,0,0,0,0,0,0,0,0,0,0,0,0,0,0,0,0,0,0,0,0,0,0,0,0,0,0,0,0,0,0,0,0,0,0,0,0,0,0,0,0,0,0,0,0,0,0,0,0,0,0,0,0,0,0,0,0,0,0,0,0,0,0,0,0,0,0,0,0,0,0,0,0,0,0,0,0,0,0,0,0,0,0,0,0,0,0,0,0,0,0,0,0,0,0],"sum_hessian":[3.897E3,1.61E3,2.287E3,4.88E2,1.122E3,2.02E2,2.085E3,1.3E2,3.58E2,1.6E2,9.62E2,1.49E2,5.3E1,1.86E3,2.25E2,7.4E1,5.6E1,1.54E2,2.04E2,9.6E1,6.4E1,5.19E2,4.43E2,9.5E1,5.4E1,4.3E1,1E1,1.312E3,5.48E2,3.4E1,1.91E2,5.9E1,1.5E1,4.2E1,1.4E1,1.28E2,2.6E1,1.14E2,9E1,1E1,8.6E1,4.4E1,2E1,4.84E2,3.5E1,2.96E2,1.47E2,5.8E1,3.7E1,5.2E1,2E0,3.3E1,1E1,8E0,2E0,3.39E2,9.73E2,5.45E2,3E0,3.2E1,2E0,1.69E2,2.2E1,3E0,5.6E1,1.4E1,1E0,2E1,2.2E1,8E0,6E0,4.5E1,8.3E1,1.9E1,7E0,1.08E2,6E0,5.4E1,3.6E1,3E0,7E0,4.5E1,4.1E1,4.1E1,3E0,1.2E1,8E0,3.19E2,1.65E2,6E0,2.9E1,1.86E2,1.1E2,9.4E1,5.3E1,5.7E1,1E0,2E0,5E1,2.6E1,7E0,3E0,7E0,1E0,7E0,3.36E2,3E0,6.35E2,3.38E2,1.63E2,3.82E2,4E0,2.8E1,1.01E2,6.8E1],"tree_param":{"num_deleted":"0","num_feature":"4","num_nodes":"115","size_leaf_vector":"1"}},{"base_weights":[1.0436758E-2,3.3854904E0,-3.518678E0,2.0855919E-1,5.4324994E0,-7.265183E0,-2.5932195E0,3.4327507E0,-2.8012013E0,-7.667263E-2,6.4889054E0,-1.0100485E1,-1.3987969E0,-1.691218E0,-8.162444E0,6.574017E0,4.5108023E-1,-3.4757519E0,6.405276E0,-2.7822464E0,8.559768E0,9.3880625E0,3.7325544E0,-7.527717E0,-1.1695171E1,-3.6567302E0,3.807492E0,-5.412136E0,-6.2229985E-1,-4.24432E0,-9.9314165E0,1.8825779E0,8.358835E0,-8.322234E-1,1.5906206E1,-3.8044853E0,1.042504E1,1.6759764E-1,1.1800091E1,-3.751119E-1,-6.4885874E0,2.2619498E0,1.3141043E1,1.3009765E1,5.6990266E0,5.2217956E0,-2.9458585E0,-8.480091E0,6.3366933E0,-1.4114895E1,-9.12551E0,-4.218178E0,4.040961E0,1.8871134E1,9.532696E-1,-2.0162199E0,-7.4020743E0,4.72132E0,-1.6604398E0,1.7958087E0,-7.1721163E0,-8.763817E0,-1.6849106E1,1.6270715E0,-4.7909784E-1,2.050907E0,4.4965744E0,5.628358E-1,-1.5766693E0,1.3714076E0,5.5076914E0,-3.3659515E-1,-1.5121726E0,6.122498E-2,5.568297E0,2.8621185E0,-2.416365E0,4.927776E0,1.250061E0,1.6711613E0,-8.4052193E-1,-1.5742819E0,-4.487294E0,3.762922E0,-8.060112E-1,6.570192E0,2.2633631E0,3.2891374E0,6.766931E0,2.882235E0,3.387881E-1,2.7177038E0,9.161896E-1,-1.9962052E0,1.025772E0,-1.9707276E0,-4.047506E0,-3.2207215E0,4.5938444E0,-2.984779E0,-4.8375435E0,-4.7395496E0,-1.8143226E0,-1.3763175E0,4.0235634E0,1.0626343E0,6.3685546E0,-2.720136E0,1.1999406E0,3.1015325E0,-1.0480167E0,-4.7522768E-1,-2.683603E0,2.0790312E0,-7.394465E-1,9.29401E-2,-1.4139557E0,2.0111852E0,-2.473485E0,-2.6800897E0,6.316245E0,-7.1331275E-1,-3.0237641E0,-7.088341E-1,-5.49823E0],"categories":[],"categories_nodes":[],"categories_segments":[],"categories_sizes":[],"default_left":[0,0,0,0,0,0,0,0,0,0,0,0,0,0,0,0,0,0,0,0,0,0,0,0,0,0,0,0,0,0,0,0,0,0,0,0,0,0,0,0,0,0,0,0,0,0,0,0,0,0,0,0,0,0,0,0,0,0,0,0,0,0,0,0,0,0,0,0,0,0,0,0,0,0,0,0,0,0,0,0,0,0,0,0,0,0,0,0,0,0,0,0,0,0,0,0,0,0,0,0,0,0,0,0,0,0,0,0,0,0,0,0,0,0,0,0,0,0,0,0,0,0,0,0,0],"id":1,"left_children":[1,3,5,7,9,11,13,15,17,19,21,23,25,27,29,31,33,35,37,39,41,43,45,47,49,51,53,55,57,59,61,63,65,67,69,71,73,75,77,79,81,83,85,87,89,91,93,95,97,99,101,103,-1,105,107,109,111,113,115,117,119,121,123,-1,-1,-1,-1,-1,-1,-1,-1,-1,-1,-1,-1,-1,-1,-1,-1,-1,-1,-1,-1,-1,-1,-1,-1,-1,-1,-1,-1,-1,-1,-1,-1,-1,-1,-1,-1,-1,-1,-1,-1,-1,-1,-1,-1,-1,-1,-1,-1,-1,-1,-1,-1,-1,-1,-1,-1,-1,-1,-1,-1,-1,-1],"loss_changes":[4.64408E4,1.2959762E4,6.589709E3,7.5981787E3,7.054242E3,6.256504E3,7.672073E3,3.5374663E3,2.537409E3,4.6036543E3,8.0919023E3,9.540625E2,1.4715992E3,5.238788E3,1.4341611E3,1.5249624E3,3.8807932E3,1.7669917E3,9.4025366E2,1.3358151E3,1.3263215E3,6.5393516E3,5.2170176E3,1.374146E3,8.3496484E2,8.933834E2,1.61582E3,1.9718301E3,5.6939507E3,1.2154098E3,1.0315928E3,6.493605E2,1.2399883E3,2.178226E3,3.3310034E2,1.2211953E3,7.4462665E2,1.1557467E3,4.6120483E2,1.342972E3,5.415947E2,1.1021316E3,1.1583926E3,4.6162227E3,4.4006816E3,3.532625E3,2.2886199E3,8.11624E2,1.2371038E3,4.9273438E2,1.5064121E3,6.153159E2,0E0,1.4162427E2,1.043672E3,2.0436073E3,1.6468906E3,2.667811E3,5.1680376E3,1.1887472E3,2.4752563E3,1.0428682E3,3.8500684E2,0E0,0E0,0E0,0E0,0E0,0E0,0E0,0E0,0E0,0E0,0E0,0E0,0E0,0E0,0E0,0E0,0E0,0E0,0E0,0E0,0E0,0E0,0E0,0E0,0E0,0E0,0E0,0E0,0E0,0E0,0E0,0E0,0E0,0E0,0E0,0E0,0E0,0E0,0E0,0E0,0E0,0E0,0E0,0E0,0E0,0E0,0E0,0E0,0E0,0E0,0E0,0E0,0E0,0E0,0E0,0E0,0E0,0E0,0E0,0E0,0E0,0E0],"parents":[2147483647,0,0,1,1,2,2,3,3,4,4,5,5,6,6,7,7,8,8,9,9,10,10,11,11,12,12,13,13,14,14,15,15,16,16,17,17,18,18,19,19,20,20,21,21,22,22,23,23,24,24,25,25,26,26,27,27,28,28,29,29,30,30,31,31,32,32,33,33,34,34,35,35,36,36,37,37,38,38,39,39,40,40,41,41,42,42,43,43,44,44,45,45,46,46,47,47,48,48,49,49,50,50,51,51,53,53,54,54,55,55,56,56,57,57,58,58,59,59,60,60,61,61,62,62],"right_children":[2,4,6,8,10,12,14,16,18,20,22,24,26,28,30,32,34,36,38,40,42,44,46,48,50,52,54,56,58,60,62,64,66,68,70,72,74,76,78,80,82,84,86,88,90,92,94,96,98,100,102,104,-1,106,108,110,112,114,116,118,120,122,124,-1,-1,-1,-1,-1,-1,-1,-1,-1,-1,-1,-1,-1,-1,-1,-1,-1,-1,-1,-1,-1,-1,-1,-1,-1,-1,-1,-1,-1,-1,-1,-1,-1,-1,-1,-1,-1,-1,-1,-1,-1,-1,-1,-1,-1,-1,-1,-1,-1,-1,-1,-1,-1,-1,-1,-1,-1,-1,-1,-1,-1,-1],"split_conditions":[1.966536E1,9.805898E1,5.9129996E0,1.4587776E1,5.055917E0,1E-1,1.4900002E1,1.7360918E1,2.6546335E1,3E-1,1.8123419E1,3.3147333E2,1.01E1,1.697055E2,1.5719251E1,5.055917E0,2.7529665E1,1.9602652E1,1.680857E1,1.5137133E1,3.352839E2,3.2039697E2,2.8654745E2,3.3087296E2,3.4700534E2,5.364483E1,1.2499999E1,2.1868332E1,1.8373207E2,2.42E1,3.4973694E2,1.1528612E1,5.6537193E1,3.6999998E0,7.636962E0,1.13880005E1,3.3942165E1,9E-1,1.8359999E1,3.0404593E2,4.7609167E0,5E-1,3.424422E2,2.5E0,1.4182355E1,1E-1,2.3808836E1,3.4679794E1,1.7796664E0,2.7362366E1,3.2963336E0,5.815083E0,4.040961E0,3.250318E2,2.2461807E1,8.246215E0,1.1058833E1,2.9914679E1,1.839842E1,3.388273E2,3.5283383E2,2.2027763E1,1.6415083E1,1.6270715E0,-4.7909784E-1,2.050907E0,4.4965744E0,5.628358E-1,-1.5766693E0,1.3714076E0,5.5076914E0,-3.3659515E-1,-1.5121726E0,6.122498E-2,5.568297E0,2.8621185E0,-2.416365E0,4.927776E0,1.250061E0,1.6711613E0,-8.4052193E-1,-1.5742819E0,-4.487294E0,3.762922E0,-8.060112E-1,6.570192E0,2.2633631E0,3.2891374E0,6.766931E0,2.882235E0,3.387881E-1,2.7177038E0,9.161896E-1,-1.9962052E0,1.025772E0,-1.9707276E0,-4.047506E0,-3.2207215E0,4.5938444E0,-2.984779E0,-4.8375435E0,-4.7395496E0,-1.8143226E0,-1.3763175E0,4.0235634E0,1.0626343E0,6.3685546E0,-2.720136E0,1.1999406E0,3.1015325E0,-1.0480167E0,-4.7522768E-1,-2.683603E0,2.0790312E0,-7.394465E-1,9.29401E-2,-1.4139557E0,2.0111852E0,-2.473485E0,-2.6800897E0,6.316245E0,-7.1331275E-1,-3.0237641E0,-7.088341E-1,-5.49823E0],"split_indices":[2,3,0,2,0,1,1,0,0,1,0,3,1,3,0,0,0,2,2,2,3,3,3,3,3,2,1,2,3,1,3,3,3,1,3,0,3,1,2,3,0,1,3,1,2,1,0,2,0,2,0,0,0,3,2,3,0,2,0,3,3,2,0,0,0,0,0,0,0,0,0,0,0,0,0,0,0,0,0,0,0,0,0,0,0,0,0,0,0,0,0,0,0,0,0,0,0,0,0,0,0,0,0,0,0,0,0,0,0,0,0,0,0,0,0,0,0,0,0,0,0,0,0,0,0],"split_type":[0,0,0,0,0,0,0,0,0,0,0,0,0,0,0,0,0,0,0,0,0,0,0,0,0,0,0,0,0,0,0,0,0,0,0,0,0,0,0,0,0,0,0,0,0,0,0,0,0,0,0,0,0,0,0,0,0,0,0,0,0,0,0,0,0,0,0,0,0,0,0,0,0,0,0,0,0,0,0,0,0,0,0,0,0,0,0,0,0,0,0,0,0,0,0,0,0,0,0,0,0,0,0,0,0,0,0,0,0,0,0,0,0,0,0,0,0,0,0,0,0,0,0,0,0],"sum_hessian":[3.897E3,1.992E3,1.905E3,7.81E2,1.211E3,3.76E2,1.529E3,3.77E2,4.04E2,1.95E2,1.016E3,2.53E2,1.23E2,1.317E3,2.12E2,1.83E2,1.94E2,3.77E2,2.7E1,1.49E2,4.6E1,4.94E2,5.22E2,9.9E1,1.54E2,8.6E1,3.7E1,2.93E2,1.024E3,6.7E1,1.45E2,5.1E1,1.32E2,1.8E2,1.4E1,3.69E2,8E0,1.3E1,1.4E1,9.1E1,5.8E1,2E1,2.6E1,2.48E2,2.46E2,4.27E2,9.5E1,9.3E1,6E0,7.7E1,7.7E1,8.4E1,2E0,5E0,3.2E1,1.09E2,1.84E2,1.66E2,8.58E2,2.2E1,4.5E1,1.26E2,1.9E1,2.5E1,2.6E1,1.09E2,2.3E1,1.12E2,6.8E1,3E0,1.1E1,1.17E2,2.52E2,4E0,4E0,6E0,7E0,8E0,6E0,2.6E1,6.5E1,5.2E1,6E0,6E0,1.4E1,9E0,1.7E1,2.06E2,4.2E1,1.32E2,1.14E2,1.53E2,2.74E2,6E1,3.5E1,6.9E1,2.4E1,2E0,4E0,2.7E1,5E1,2.3E1,5.4E1,8.3E1,1E0,1E0,4E0,7E0,2.5E1,1.1E1,9.8E1,3.9E1,1.45E2,1.27E2,3.9E1,5.22E2,3.36E2,1.5E1,7E0,4.3E1,2E0,2.2E1,1.04E2,2E0,1.7E1],"tree_param":{"num_deleted":"0","num_feature":"4","num_nodes":"125","size_leaf_vector":"1"}},{"base_weights":[1.5562213E-2,2.0463133E0,-2.9937336E0,4.753776E0,7.3099077E-1,-1.9608884E0,-4.6264133E0,2.3003964E0,6.267889E0,2.903383E-1,7.128484E0,-6.5344733E-1,-6.0368648E0,-3.9043295E0,-9.343362E0,6.109771E0,9.076915E-1,2.3468585E0,7.307876E0,-1.5789974E0,1.5698143E0,9.95564E0,1.5128278E0,-5.042951E0,1.3335772E0,-7.369744E0,1.7520678E0,-5.33554E0,-1.4883454E-1,-1.0928259E1,2.8437467E0,4.356805E0,1.6390854E1,3.3525577E0,-1.3288474E0,-7.193884E-1,1.1574375E1,1.1222723E1,5.414664E0,8.691912E0,-1.8950274E0,4.231349E0,-1.3045787E0,5.0760064E0,1.7455215E1,2.995852E0,-1.0729572E1,-2.1494403E0,-6.684413E0,-6.7138524E0,2.0987687E0,-5.467972E0,-1.0534004E1,-2.1127596E0,1.31518755E1,-5.999158E0,-5.7905453E-1,2.7432535E0,-6.170917E0,-4.9736238E0,-1.425819E1,-5.010106E0,6.9254127E0,1.7279768E0,-1.0312574E0,8.364902E0,6.500679E-1,-8.419134E-2,2.1187484E0,-5.5037946E-1,5.348064E0,-3.5708997E-1,5.1898456E0,-5.7522196E-1,4.2706633E0,4.723973E0,1.9309285E0,2.4481468E0,6.6820997E-1,8.243429E0,-1.9417305E-1,-1.17308974E-1,-9.806036E-1,1.724525E0,-9.4078225E-1,-6.380312E-2,-2.4347653E0,7.189045E-1,4.023383E0,8.463501E0,3.0303345E0,-2.9998216E-1,1.8477728E0,-3.721415E0,-8.55621E-1,-2.3741436E0,7.670544E-1,-9.126415E-1,-2.857411E0,-9.982645E-2,-3.7576814E0,8.052731E-1,-1.2391381E0,-2.197997E0,2.3579949E-1,-3.493953E0,2.9992534E-2,1.1501689E0,-3.3332932E0,4.6239653E0,1.9415686E0,-1.6003449E0,-4.5730233E0,3.2957735E0,-6.537913E-1,2.4899838E0,-1.444685E0,-3.269053E0,-1.2878755E0,-2.4219728E0,4.460248E0,-1.2530222E0,-4.624186E0,-1.9530414E0,-7.650147E-2,5.6469584E0,-4.7950175E-1],"categories":[],"categories_nodes":[],"categories_segments":[],"categories_sizes":[],"default_left":[0,0,0,0,0,0,0,0,0,0,0,0,0,0,0,0,0,0,0,0,0,0,0,0,0,0,0,0,0,0,0,0,0,0,0,0,0,0,0,0,0,0,0,0,0,0,0,0,0,0,0,0,0,0,0,0,0,0,0,0,0,0,0,0,0,0,0,0,0,0,0,0,0,0,0,0,0,0,0,0,0,0,0,0,0,0,0,0,0,0,0,0,0,0,0,0,0,0,0,0,0,0,0,0,0,0,0,0,0,0,0,0,0,0,0,0,0,0,0,0,0,0,0,0,0,0,0],"id":2,"left_children":[1,3,5,7,9,11,13,15,17,19,21,23,25,27,29,31,33,35,37,39,41,43,45,47,49,51,53,55,57,59,61,63,65,67,69,71,73,75,77,79,81,83,85,87,89,91,93,95,97,99,101,103,105,107,109,111,113,115,117,119,121,123,125,-1,-1,-1,-1,-1,-1,-1,-1,-1,-1,-1,-1,-1,-1,-1,-1,-1,-1,-1,-1,-1,-1,-1,-1,-1,-1,-1,-1,-1,-1,-1,-1,-1,-1,-1,-1,-1,-1,-1,-1,-1,-1,-1,-1,-1,-1,-1,-1,-1,-1,-1,-1,-1,-1,-1,-1,-1,-1,-1,-1,-1,-1,-1,-1],"loss_changes":[2.3827314E4,8.286969E3,2.6401133E3,2.812463E3,4.4182334E3,5.1333057E3,2.0343877E3,1.543612E3,1.8994277E3,3.5135974E3,1.5884487E3,6.3825444E3,2.4422314E3,2.8425283E3,1.5763022E3,1.3343342E3,1.1800833E3,2.8377112E3,2.6889492E3,1.9542827E3,6.676578E3,2.3632744E3,6.675963E2,1.0685386E3,3.1176348E3,1.1459404E3,1.569827E3,1.2054619E3,2.5771382E3,1.3369102E3,3.5526514E2,7.634724E2,1.7376833E3,1.3903115E3,1.1274517E3,6.654739E2,9.248928E2,2.4969473E3,2.187268E3,3.1758325E3,1.1969832E3,5.0810605E3,3.1219297E3,9.059601E2,1.7717354E3,4.1064697E2,1.7404724E1,2.299053E3,1.4710659E3,1.6275878E3,1.6923807E3,1.4820271E3,8.7661035E2,1.4873494E3,3.619861E1,1.9832119E3,9.122696E2,4.240201E3,3.7923438E2,1.7805259E3,4.5994922E2,2.6871101E1,7.3998206E2,0E0,0E0,0E0,0E0,0E0,0E0,0E0,0E0,0E0,0E0,0E0,0E0,0E0,0E0,0E0,0E0,0E0,0E0,0E0,0E0,0E0,0E0,0E0,0E0,0E0,0E0,0E0,0E0,0E0,0E0,0E0,0E0,0E0,0E0,0E0,0E0,0E0,0E0,0E0,0E0,0E0,0E0,0E0,0E0,0E0,0E0,0E0,0E0,0E0,0E0,0E0,0E0,0E0,0E0,0E0,0E0,0E0,0E0,0E0,0E0,0E0,0E0,0E0,0E0],"parents":[2147483647,0,0,1,1,2,2,3,3,4,4,5,5,6,6,7,7,8,8,9,9,10,10,11,11,12,12,13,13,14,14,15,15,16,16,17,17,18,18,19,19,20,20,21,21,22,22,23,23,24,24,25,25,26,26,27,27,28,28,29,29,30,30,31,31,32,32,33,33,34,34,35,35,36,36,37,37,38,38,39,39,40,40,41,41,42,42,43,43,44,44,45,45,46,46,47,47,48,48,49,49,50,50,51,51,52,52,53,53,54,54,55,55,56,56,57,57,58,58,59,59,60,60,61,61,62,62],"right_children":[2,4,6,8,10,12,14,16,18,20,22,24,26,28,30,32,34,36,38,40,42,44,46,48,50,52,54,56,58,60,62,64,66,68,70,72,74,76,78,80,82,84,86,88,90,92,94,96,98,100,102,104,106,108,110,112,114,116,118,120,122,124,126,-1,-1,-1,-1,-1,-1,-1,-1,-1,-1,-1,-1,-1,-1,-1,-1,-1,-1,-1,-1,-1,-1,-1,-1,-1,-1,-1,-1,-1,-1,-1,-1,-1,-1,-1,-1,-1,-1,-1,-1,-1,-1,-1,-1,-1,-1,-1,-1,-1,-1,-1,-1,-1,-1,-1,-1,-1,-1,-1,-1,-1,-1,-1,-1],"split_conditions":[2.1868332E1,1.3513193E1,3.250318E2,1.0532159E2,2.7631752E1,2.4821335E1,1.6738E1,9.793059E0,5.815083E0,9.805898E1,1.9161441E2,1.5381207E2,2.894217E1,9.000001E-1,2.5462166E1,3.8E0,1.7244251E1,2E-1,1.2660083E1,1.3722565E1,2.339725E2,1.7710147E2,2.1068459E1,1.13880005E1,5.055917E0,1.9000002E0,2.0373584E2,1.2583835E1,1.89E1,5E-1,3.485231E2,2.1E0,9.600002E0,4E-1,2.4900002E1,1.3441071E1,3.2039697E2,3.301621E2,6E-1,1.4280918E1,1.6415083E1,2.5376749E1,1.9383833E1,2.9522577E1,1.8229382E2,2.0987921E2,2.894217E1,1E-1,2.5233406E1,2.7219902E1,4.332731E1,1.9409138E2,4.5657597E1,2E-1,3.0510916E1,1.1237999E1,3.347279E2,3.4928693E2,3.37665E2,3.5255936E2,2.3000591E1,3.4829236E2,3.5100696E2,1.7279768E0,-1.0312574E0,8.364902E0,6.500679E-1,-8.419134E-2,2.1187484E0,-5.5037946E-1,5.348064E0,-3.5708997E-1,5.1898456E0,-5.7522196E-1,4.2706633E0,4.723973E0,1.9309285E0,2.4481468E0,6.6820997E-1,8.243429E0,-1.9417305E-1,-1.17308974E-1,-9.806036E-1,1.724525E0,-9.4078225E-1,-6.380312E-2,-2.4347653E0,7.189045E-1,4.023383E0,8.463501E0,3.0303345E0,-2.9998216E-1,1.8477728E0,-3.721415E0,-8.55621E-1,-2.3741436E0,7.670544E-1,-9.126415E-1,-2.857411E0,-9.982645E-2,-3.7576814E0,8.052731E-1,-1.2391381E0,-2.197997E0,2.3579949E-1,-3.493953E0,2.9992534E-2,1.1501689E0,-3.3332932E0,4.6239653E0,1.9415686E0,-1.6003449E0,-4.5730233E0,3.2957735E0,-6.537913E-1,2.4899838E0,-1.444685E0,-3.269053E0,-1.2878755E0,-2.4219728E0,4.460248E0,-1.2530222E0,-4.624186E0,-1.9530414E0,-7.650147E-2,5.6469584E0,-4.7950175E-1],"split_indices":[2,2,3,3,0,0,0,2,0,3,3,3,0,1,0,1,0,1,0,2,3,3,2,0,0,1,3,0,1,1,3,1,1,1,1,2,3,3,1,0,0,0,0,0,3,3,0,1,2,2,2,3,2,1,0,0,3,3,3,3,2,3,3,0,0,0,0,0,0,0,0,0,0,0,0,0,0,0,0,0,0,0,0,0,0,0,0,0,0,0,0,0,0,0,0,0,0,0,0,0,0,0,0,0,0,0,0,0,0,0,0,0,0,0,0,0,0,0,0,0,0,0,0,0,0,0,0],"split_type":[0,0,0,0,0,0,0,0,0,0,0,0,0,0,0,0,0,0,0,0,0,0,0,0,0,0,0,0,0,0,0,0,0,0,0,0,0,0,0,0,0,0,0,0,0,0,0,0,0,0,0,0,0,0,0,0,0,0,0,0,0,0,0,0,0,0,0,0,0,0,0,0,0,0,0,0,0,0,0,0,0,0,0,0,0,0,0,0,0,0,0,0,0,0,0,0,0,0,0,0,0,0,0,0,0,0,0,0,0,0,0,0,0,0,0,0,0,0,0,0,0,0,0,0,0,0,0],"sum_hessian":[3.897E3,2.327E3,1.57E3,7.6E2,1.567E3,9.63E2,6.07E2,2.91E2,4.69E2,1.467E3,1E2,7.3E2,2.33E2,5.28E2,7.9E1,7.7E1,2.14E2,9.9E1,3.7E2,5.96E2,8.71E2,6.6E1,3.4E1,2.27E2,5.03E2,1.99E2,3.4E1,3.82E2,1.46E2,7E1,9E0,6.7E1,1E1,1.02E2,1.12E2,7.5E1,2.4E1,1.19E2,2.51E2,1.7E1,5.79E2,4.52E2,4.19E2,4.1E1,2.5E1,3.1E1,3E0,8.3E1,1.44E2,4.3E1,4.6E2,1.26E2,7.3E1,2.6E1,8E0,3.35E2,4.7E1,9.9E1,4.7E1,2.6E1,4.4E1,3E0,6E0,5.7E1,1E1,5E0,5E0,5.2E1,5E1,1.1E2,2E0,7.4E1,1E0,4E0,2E1,6E1,5.9E1,1.34E2,1.17E2,5E0,1.2E1,2.77E2,3.02E2,3.75E2,7.7E1,3.62E2,5.7E1,3.2E1,9E0,9E0,1.6E1,1.4E1,1.7E1,2E0,1E0,3.7E1,4.6E1,6.4E1,8E1,2.1E1,2.2E1,4.21E2,3.9E1,9.7E1,2.9E1,6.6E1,7E0,1.6E1,1E1,5E0,3E0,3.14E2,2.1E1,5E0,4.2E1,5.7E1,4.2E1,1.2E1,3.5E1,2.3E1,3E0,5E0,3.9E1,2E0,1E0,2E0,4E0],"tree_param":{"num_deleted":"0","num_feature":"4","num_nodes":"127","size_leaf_vector":"1"}},{"base_weights":[1.9829059E-2,2.1541724E0,-1.4829886E0,5.423487E0,1.5296248E0,-5.6231318E0,-1.0793779E0,7.971443E0,2.083442E0,1.2247232E0,7.2778425E0,-7.262182E0,6.4454794E-1,-9.60177E-1,-1.0486826E1,6.265475E0,2.1440844E1,1.1116157E0,1.1982092E1,2.1772182E0,-7.6063044E-2,1.3657969E1,3.713378E0,-6.697937E0,-1.230764E1,-7.718157E0,3.4125843E0,4.952222E-1,-1.6522889E0,-6.707896E0,-1.2092854E1,-6.073594E0,6.7019305E0,2.4957123E-1,2.8483805E1,2.2745516E0,-5.9401073E0,9.44705E0,3.1688032E0,-1.2747265E-1,5.32639E0,1.4268593E0,-2.140617E0,1.5344766E1,-3.2645302E0,7.118549E0,-5.1722443E-1,-9.45668E0,-5.5782504E0,-3.9000044E0,-1.5614415E0,-4.796682E0,5.4045687E0,7.540186E0,-3.5175862E0,-8.360403E-1,2.4217744E0,-1.1527654E0,-4.008018E0,-8.8825035E0,1.3270226E0,-1.5529185E1,-7.3128705E0,-4.4390795E-1,-2.592889E0,9.5920074E-1,2.5006642E0,3.609554E0,-3.4847684E0,3.848119E0,1.0412639E1,8.079248E-1,-3.228163E0,-7.451688E-1,-2.8605664E0,2.266375E0,-9.316867E-1,-5.3513086E-1,1.2648475E0,2.1928396E0,4.9014977E-1,2.8747258E0,1.802056E-1,-1.0484761E0,3.6190295E-1,5.492254E0,4.829789E-1,-3.7847455E0,2.315707E0,4.6851864E0,6.601436E-1,5.080342E-1,-1.2963742E0,-1.6835686E0,-3.5078607E0,4.860241E0,-1.9086809E0,4.674925E0,-3.1074917E-1,4.4865283E-1,3.8698175E0,-1.9438514E0,1.4299814E0,-3.8127193E-1,2.3441195E0,2.2714674E0,-2.4694534E-2,-1.4419004E-1,-1.225808E0,-1.5833869E0,1.3557442E-1,-1.032286E0,-3.0368583E0,-1.0117756E0,1.6089358E0,-4.977724E0,-1.0535057E0,1.0478654E0,-3.269764E0],"categories":[],"categories_nodes":[],"categories_segments":[],"categories_sizes":[],"default_left":[0,0,0,0,0,0,0,0,0,0,0,0,0,0,0,0,0,0,0,0,0,0,0,0,0,0,0,0,0,0,0,0,0,0,0,0,0,0,0,0,0,0,0,0,0,0,0,0,0,0,0,0,0,0,0,0,0,0,0,0,0,0,0,0,0,0,0,0,0,0,0,0,0,0,0,0,0,0,0,0,0,0,0,0,0,0,0,0,0,0,0,0,0,0,0,0,0,0,0,0,0,0,0,0,0,0,0,0,0,0,0,0,0,0,0,0,0,0,0],"id":3,"left_children":[1,3,5,7,9,11,13,15,17,19,21,23,25,27,29,31,33,35,37,39,41,43,45,47,49,51,53,55,57,59,61,63,65,67,69,71,73,-1,75,77,79,81,83,85,87,89,91,93,95,-1,-1,-1,97,99,101,103,105,107,109,111,113,115,117,-1,-1,-1,-1,-1,-1,-1,-1,-1,-1,-1,-1,-1,-1,-1,-1,-1,-1,-1,-1,-1,-1,-1,-1,-1,-1,-1,-1,-1,-1,-1,-1,-1,-1,-1,-1,-1,-1,-1,-1,-1,-1,-1,-1,-1,-1,-1,-1,-1,-1,-1,-1,-1,-1,-1,-1],"loss_changes":[1.2506144E4,3.2811118E3,3.8171934E3,2.1790464E3,2.3641626E3,2.0901084E3,2.3291216E3,3.2205059E3,1.0737145E3,1.5947489E3,1.4957202E3,3.759121E2,1.0217145E3,2.0768616E3,7.667798E1,7.461997E2,2.3808794E3,8.6638403E2,1.6195168E3,5.3932744E3,1.6941152E3,7.3516943E2,6.519485E2,4.0131982E2,6.1047363E0,1.2803005E3,9.7048773E2,1.7075813E3,1.6392883E3,1.8651526E2,1.656726E2,4.6228226E1,7.004448E2,8.387716E2,7.243447E2,5.199822E2,1.6269757E2,0E0,2.4360767E2,3.101088E3,2.2873613E3,2.123424E3,1.0467596E3,8.6576855E2,4.0551288E2,1.0105696E3,1.8391615E2,2.8688525E2,1.9301189E3,0E0,0E0,0E0,3.4390985E2,6.609967E2,3.4986743E2,1.4919583E3,3.508204E3,2.273192E3,1.3843618E3,1.9163452E1,7.499179E1,5.6728516E1,3.8684784E2,0E0,0E0,0E0,0E0,0E0,0E0,0E0,0E0,0E0,0E0,0E0,0E0,0E0,0E0,0E0,0E0,0E0,0E0,0E0,0E0,0E0,0E0,0E0,0E0,0E0,0E0,0E0,0E0,0E0,0E0,0E0,0E0,0E0,0E0,0E0,0E0,0E0,0E0,0E0,0E0,0E0,0E0,0E0,0E0,0E0,0E0,0E0,0E0,0E0,0E0,0E0,0E0,0E0,0E0,0E0,0E0],"parents":[2147483647,0,0,1,1,2,2,3,3,4,4,5,5,6,6,7,7,8,8,9,9,10,10,11,11,12,12,13,13,14,14,15,15,16,16,17,17,18,18,19,19,20,20,21,21,22,22,23,23,24,24,25,25,26,26,27,27,28,28,29,29,30,30,31,31,32,32,33,33,34,34,35,35,36,36,38,38,39,39,40,40,41,41,42,42,43,43,44,44,45,45,46,46,47,47,48,48,52,52,53,53,54,54,55,55,56,56,57,57,58,58,59,59,60,60,61,61,62,62],"right_children":[2,4,6,8,10,12,14,16,18,20,22,24,26,28,30,32,34,36,38,40,42,44,46,48,50,52,54,56,58,60,62,64,66,68,70,72,74,-1,76,78,80,82,84,86,88,90,92,94,96,-1,-1,-1,98,100,102,104,106,108,110,112,114,116,118,-1,-1,-1,-1,-1,-1,-1,-1,-1,-1,-1,-1,-1,-1,-1,-1,-1,-1,-1,-1,-1,-1,-1,-1,-1,-1,-1,-1,-1,-1,-1,-1,-1,-1,-1,-1,-1,-1,-1,-1,-1,-1,-1,-1,-1,-1,-1,-1,-1,-1,-1,-1,-1,-1,-1,-1],"split_conditions":[1.7727943E1,1.0365251E1,3.4942505E0,1.6738E1,2.8030916E1,8E-1,5.84E1,5.7E0,2.7198416E1,1.8123419E1,2.850675E1,3.924165E1,2.1068459E1,2.1868332E1,1.6540085E1,7.788332E-1,8.707238E0,1.0144082E1,7.9932976E0,2E-1,2.3000002E0,1.7551615E1,1.5379206E1,2.3377836E1,3.5042017E2,3.3147333E2,2.8001427E1,1.8134782E2,2.4821335E1,9.149999E1,2.1053835E1,9.659814E0,7.2544266E1,1.1700001E1,7.5000005E0,3.5641696E2,1.0148192E2,9.44705E0,2.850675E1,1.2127583E1,1.2487999E1,1.1298495E1,1.5807239E1,1.6000001E0,2.8195501E1,4E-1,3.0510916E1,1.6609162E0,2.3667091E1,-3.9000044E0,-1.5614415E0,-4.796682E0,1.8000001E0,2.2461807E1,3.647388E1,2.8404669E1,2.0817014E2,3.4829236E2,2.8404669E1,8.78175E0,8.344251E0,3.5221906E2,2.156925E1,-4.4390795E-1,-2.592889E0,9.5920074E-1,2.5006642E0,3.609554E0,-3.4847684E0,3.848119E0,1.0412639E1,8.079248E-1,-3.228163E0,-7.451688E-1,-2.8605664E0,2.266375E0,-9.316867E-1,-5.3513086E-1,1.2648475E0,2.1928396E0,4.9014977E-1,2.8747258E0,1.802056E-1,-1.0484761E0,3.6190295E-1,5.492254E0,4.829789E-1,-3.7847455E0,2.315707E0,4.6851864E0,6.601436E-1,5.080342E-1,-1.2963742E0,-1.6835686E0,-3.5078607E0,4.860241E0,-1.9086809E0,4.674925E0,-3.1074917E-1,4.4865283E-1,3.8698175E0,-1.9438514E0,1.4299814E0,-3.8127193E-1,2.3441195E0,2.2714674E0,-2.4694534E-2,-1.4419004E-1,-1.225808E0,-1.5833869E0,1.3557442E-1,-1.032286E0,-3.0368583E0,-1.0117756E0,1.6089358E0,-4.977724E0,-1.0535057E0,1.0478654E0,-3.269764E0],"split_indices":[2,2,0,0,0,1,1,1,0,0,0,2,2,2,0,0,2,2,2,1,1,2,2,2,3,3,2,3,0,1,0,2,3,1,1,3,3,0,0,0,0,2,2,1,0,1,0,0,2,0,0,0,1,2,2,0,3,3,0,0,0,3,0,0,0,0,0,0,0,0,0,0,0,0,0,0,0,0,0,0,0,0,0,0,0,0,0,0,0,0,0,0,0,0,0,0,0,0,0,0,0,0,0,0,0,0,0,0,0,0,0,0,0,0,0,0,0,0,0],"split_type":[0,0,0,0,0,0,0,0,0,0,0,0,0,0,0,0,0,0,0,0,0,0,0,0,0,0,0,0,0,0,0,0,0,0,0,0,0,0,0,0,0,0,0,0,0,0,0,0,0,0,0,0,0,0,0,0,0,0,0,0,0,0,0,0,0,0,0,0,0,0,0,0,0,0,0,0,0,0,0,0,0,0,0,0,0,0,0,0,0,0,0,0,0,0,0,0,0,0,0,0,0,0,0,0,0,0,0,0,0,0,0,0,0,0,0,0,0,0,0],"sum_hessian":[3.897E3,1.61E3,2.287E3,2.57E2,1.353E3,2.02E2,2.085E3,1.45E2,1.12E2,1.286E3,6.7E1,1.6E2,4.2E1,2.06E3,2.5E1,1.3E2,1.5E1,1.03E2,9E0,7.42E2,5.44E2,2.3E1,4.4E1,1.46E2,1.4E1,1E1,3.2E1,6.64E2,1.396E3,9E0,1.6E1,4E0,1.26E2,4E0,1.1E1,8.9E1,1.4E1,2E0,7E0,4.29E2,3.13E2,3.15E2,2.29E2,2.1E1,2E0,2.4E1,2E1,4E1,1.06E2,1.2E1,2E0,6E0,4E0,2E1,1.2E1,3.93E2,2.71E2,1.153E3,2.43E2,7E0,2E0,8E0,8E0,2E0,2E0,4.1E1,8.5E1,2E0,2E0,4E0,7E0,8.7E1,2E0,8E0,6E0,4E0,3E0,3.11E2,1.18E2,2.03E2,1.1E2,2.8E1,2.87E2,1.63E2,6.6E1,1.7E1,4E0,1E0,1E0,8E0,1.6E1,1.3E1,7E0,1.6E1,2.4E1,3E0,1.03E2,1E0,3E0,1E1,1E1,9E0,3E0,3.75E2,1.8E1,8.8E1,1.83E2,9.39E2,2.14E2,1.89E2,5.4E1,2E0,5E0,1E0,1E0,7E0,1E0,2E0,6E0],"tree_param":{"num_deleted":"0","num_feature":"4","num_nodes":"119","size_leaf_vector":"1"}},{"base_weights":[1.894612E-2,1.438471E0,-1.1563468E0,-2.9690748E-1,2.2319498E0,-3.5128748E0,-8.40193E-1,6.299428E0,-7.259851E-1,-7.066916E-1,2.9172556E0,-1.8335155E0,-6.910203E0,3.0003414E-1,-2.0227013E0,8.555015E0,-1.2756222E1,1.8365816E0,-1.545985E0,1.4026642E0,-4.4594383E0,4.5888824E0,1.6037413E0,-4.069427E0,1.2663281E0,-1.4529087E1,-5.2877088E0,2.0383608E0,-8.745426E-1,-1.3864446E0,-4.984694E0,2.1835191E0,1.3673685E1,-4.3888073E0,-1.0705228E0,4.213163E0,-2.1626494E0,-2.4758677E0,1.3458786E0,1.7794447E-1,1.149548E1,-1.0506713E1,-2.742614E0,5.675923E0,-9.2515284E-1,4.5833354E0,3.325125E-1,-1.0377599E1,-2.132318E0,5.540547E0,-3.6736972E0,-4.9533007E-1,-4.6178083E0,-8.1571656E-1,-7.458775E0,-1.3635837E-1,4.3173594E0,2.0985162E0,-2.8311405E0,-2.42205E0,1.4772276E0,-6.873751E-1,-6.7723804E0,-2.7492854E-1,2.0958538E0,1.1749449E0,6.033624E0,6.368937E-1,2.9953473E0,-1.6819385E0,1.5226139E0,-5.146183E-1,-2.2128181E0,5.976412E-2,3.7606735E0,-2.3551524E0,2.8985092E-1,8.577532E0,2.103265E0,-3.3876576E0,4.269625E-1,-9.572387E-2,-2.0911515E0,1.0711462E0,3.0446029E0,-7.2781664E-1,2.9552186E0,4.542918E0,1.0279229E0,4.721185E-2,6.8268943E0,-3.4274142E0,1.8988392E0,8.813541E-2,-2.4632788E0,5.728073E-1,3.1923141E0,4.3521166E0,-2.6773572E0,2.5032892E0,-1.5234985E0,-2.6343627E0,9.1241825E-1,-9.4570994E-1,8.64304E-1,-6.554971E-1,1.8916667E0,1.1912383E0,-7.9730105E-1,-5.232844E-1,-1.9269434E0,-7.900943E-1,8.294537E0,8.569562E0,1.9467568E-1,-1.0742159E0,2.8900006E0,-2.1691465E0,2.3243158E0],"categories":[],"categories_nodes":[],"categories_segments":[],"categories_sizes":[],"default_left":[0,0,0,0,0,0,0,0,0,0,0,0,0,0,0,0,0,0,0,0,0,0,0,0,0,0,0,0,0,0,0,0,0,0,0,0,0,0,0,0,0,0,0,0,0,0,0,0,0,0,0,0,0,0,0,0,0,0,0,0,0,0,0,0,0,0,0,0,0,0,0,0,0,0,0,0,0,0,0,0,0,0,0,0,0,0,0,0,0,0,0,0,0,0,0,0,0,0,0,0,0,0,0,0,0,0,0,0,0,0,0,0,0,0,0,0,0,0,0],"id":4,"left_children":[1,3,5,7,9,11,13,15,17,19,21,23,25,27,29,31,33,35,37,39,41,43,45,47,49,51,53,55,57,59,61,63,65,-1,-1,67,69,71,73,75,77,79,81,83,85,87,89,91,93,95,97,-1,-1,99,101,103,105,107,109,111,113,115,117,-1,-1,-1,-1,-1,-1,-1,-1,-1,-1,-1,-1,-1,-1,-1,-1,-1,-1,-1,-1,-1,-1,-1,-1,-1,-1,-1,-1,-1,-1,-1,-1,-1,-1,-1,-1,-1,-1,-1,-1,-1,-1,-1,-1,-1,-1,-1,-1,-1,-1,-1,-1,-1,-1,-1,-1],"loss_changes":[6.50492E3,2.4324204E3,1.5861877E3,1.5754119E3,2.4428696E3,1.4250745E3,2.5381602E3,1.570506E3,1.0997205E3,1.8269069E3,2.1510195E3,1.183419E3,9.4918677E2,1.9598671E3,1.7344482E3,9.8116455E2,1.6636536E1,1.2161829E3,1.0682133E3,1.8273633E3,8.328993E2,2.5946504E3,2.089312E3,1.1876134E3,1.5406162E3,1.3028638E2,6.735449E2,1.9186315E3,3.3391284E3,2.263391E3,1.2475527E3,2.2972221E2,9.891836E2,0E0,0E0,9.43854E2,1.2249227E3,1.105287E3,1.2420938E3,8.492394E2,1.0262661E3,1.8474353E2,6.740409E2,3.363334E3,1.1883939E3,1.9638889E3,1.5202101E3,4.746792E2,1.1379572E3,7.019967E2,3.3752437E3,0E0,0E0,9.7946906E2,6.7933887E2,1.820065E3,2.4571592E3,2.0408708E3,1.339581E3,3.636014E3,4.536217E3,1.4977013E3,8.2097266E2,0E0,0E0,0E0,0E0,0E0,0E0,0E0,0E0,0E0,0E0,0E0,0E0,0E0,0E0,0E0,0E0,0E0,0E0,0E0,0E0,0E0,0E0,0E0,0E0,0E0,0E0,0E0,0E0,0E0,0E0,0E0,0E0,0E0,0E0,0E0,0E0,0E0,0E0,0E0,0E0,0E0,0E0,0E0,0E0,0E0,0E0,0E0,0E0,0E0,0E0,0E0,0E0,0E0,0E0,0E0,0E0],"parents":[2147483647,0,0,1,1,2,2,3,3,4,4,5,5,6,6,7,7,8,8,9,9,10,10,11,11,12,12,13,13,14,14,15,15,16,16,17,17,18,18,19,19,20,20,21,21,22,22,23,23,24,24,25,25,26,26,27,27,28,28,29,29,30,30,31,31,32,32,35,35,36,36,37,37,38,38,39,39,40,40,41,41,42,42,43,43,44,44,45,45,46,46,47,47,48,48,49,49,50,50,53,53,54,54,55,55,56,56,57,57,58,58,59,59,60,60,61,61,62,62],"right_children":[2,4,6,8,10,12,14,16,18,20,22,24,26,28,30,32,34,36,38,40,42,44,46,48,50,52,54,56,58,60,62,64,66,-1,-1,68,70,72,74,76,78,80,82,84,86,88,90,92,94,96,98,-1,-1,100,102,104,106,108,110,112,114,116,118,-1,-1,-1,-1,-1,-1,-1,-1,-1,-1,-1,-1,-1,-1,-1,-1,-1,-1,-1,-1,-1,-1,-1,-1,-1,-1,-1,-1,-1,-1,-1,-1,-1,-1,-1,-1,-1,-1,-1,-1,-1,-1,-1,-1,-1,-1,-1,-1,-1,-1,-1,-1,-1,-1,-1,-1],"split_conditions":[1.8472595E1,5.9054157E1,2.910975E1,2.0758495E0,6.0067496E0,1.6883001E1,2.2053603E2,1.45E1,1.1874544E1,1.5137133E1,1.8123419E1,9.956752E0,1.9177584E1,1.9442167E1,1.6960918E1,8.933832E0,2.0635918E1,2.0148417E1,2.2024666E1,1.4707222E1,1.5629972E1,3.5009482E2,1E-1,2.0275383E1,2.4187069E1,1.8584509E1,1.5273291E1,2E-1,2E-1,1.4000001E0,2E-1,1.2527708E0,2E-1,-4.3888073E0,-1.0705228E0,1.6000001E0,2.5462166E1,2.0340082E1,1.8E1,4.8925018E-1,1.7710147E2,3.1999998E0,4.4650836E0,1.2000002E0,3.586328E2,8.427022E1,3.5825577E2,8.522584E0,7.242165E0,2.3E0,1.16588335E1,-4.9533007E-1,-4.6178083E0,1.2E0,3.3300003E1,1.8922478E2,5.9054157E1,2.8100763E1,3.388019E1,1.6540085E1,1.5000001E0,3.5069086E2,3.578293E2,-2.7492854E-1,2.0958538E0,1.1749449E0,6.033624E0,6.368937E-1,2.9953473E0,-1.6819385E0,1.5226139E0,-5.146183E-1,-2.2128181E0,5.976412E-2,3.7606735E0,-2.3551524E0,2.8985092E-1,8.577532E0,2.103265E0,-3.3876576E0,4.269625E-1,-9.572387E-2,-2.0911515E0,1.0711462E0,3.0446029E0,-7.2781664E-1,2.9552186E0,4.542918E0,1.0279229E0,4.721185E-2,6.8268943E0,-3.4274142E0,1.8988392E0,8.813541E-2,-2.4632788E0,5.728073E-1,3.1923141E0,4.3521166E0,-2.6773572E0,2.5032892E0,-1.5234985E0,-2.6343627E0,9.1241825E-1,-9.4570994E-1,8.64304E-1,-6.554971E-1,1.8916667E0,1.1912383E0,-7.9730105E-1,-5.232844E-1,-1.9269434E0,-7.900943E-1,8.294537E0,8.569562E0,1.9467568E-1,-1.0742159E0,2.8900006E0,-2.1691465E0,2.3243158E0],"split_indices":[2,3,3,3,0,0,3,1,2,2,0,0,0,0,0,0,0,0,0,2,2,3,1,2,2,2,3,1,1,1,1,3,1,0,0,1,0,0,2,0,3,1,0,1,3,3,3,0,0,1,0,0,0,1,1,3,3,2,2,0,1,3,3,0,0,0,0,0,0,0,0,0,0,0,0,0,0,0,0,0,0,0,0,0,0,0,0,0,0,0,0,0,0,0,0,0,0,0,0,0,0,0,0,0,0,0,0,0,0,0,0,0,0,0,0,0,0,0,0],"split_type":[0,0,0,0,0,0,0,0,0,0,0,0,0,0,0,0,0,0,0,0,0,0,0,0,0,0,0,0,0,0,0,0,0,0,0,0,0,0,0,0,0,0,0,0,0,0,0,0,0,0,0,0,0,0,0,0,0,0,0,0,0,0,0,0,0,0,0,0,0,0,0,0,0,0,0,0,0,0,0,0,0,0,0,0,0,0,0,0,0,0,0,0,0,0,0,0,0,0,0,0,0,0,0,0,0,0,0,0,0,0,0,0,0,0,0,0,0,0,0],"sum_hessian":[3.897E3,1.765E3,2.132E3,5.54E2,1.211E3,2.51E2,1.881E3,3.3E1,5.21E2,2.29E2,9.82E2,1.69E2,8.2E1,9.58E2,9.23E2,3E1,3E0,1.26E2,3.95E2,1.47E2,8.2E1,4.31E2,5.51E2,9.8E1,7.1E1,1.3E1,6.9E1,3.86E2,5.72E2,7.61E2,1.62E2,1.4E1,1.6E1,2E0,1E0,7.9E1,4.7E1,2.99E2,9.6E1,1.32E2,1.5E1,1.7E1,6.5E1,3.6E2,7.1E1,1.64E2,3.87E2,2.2E1,7.6E1,3.8E1,3.3E1,1E0,1.2E1,2.3E1,4.6E1,1.98E2,1.88E2,2.27E2,3.45E2,5.59E2,2.02E2,4.8E1,1.14E2,9E0,5E0,7E0,9E0,5.9E1,2E1,3.2E1,1.5E1,2.6E2,3.9E1,8.8E1,8E0,1.1E1,1.21E2,2E0,1.3E1,1.6E1,1E0,4.2E1,2.3E1,2.46E2,1.14E2,6.3E1,8E0,1.5E1,1.49E2,3.85E2,2E0,2.1E1,1E0,5.5E1,2.1E1,2.3E1,1.5E1,7E0,2.6E1,7E0,1.6E1,4.1E1,5E0,9.9E1,9.9E1,4.4E1,1.44E2,1.63E2,6.4E1,2.66E2,7.9E1,5.56E2,3E0,5E0,1.97E2,3.8E1,1E1,1.11E2,3E0],"tree_param":{"num_deleted":"0","num_feature":"4","num_nodes":"119","size_leaf_vector":"1"}},{"base_weights":[2.4398904E-2,1.9711244E0,-4.4771153E-1,1.7807118E0,1.0725918E1,-2.137431E0,-3.331471E-2,1.1845797E-1,2.4447672E0,2.9927246E1,3.992746E0,-2.7809136E0,2.419777E0,2.8110403E-1,-4.2241845E0,2.9587908E0,-1.4995304E0,3.4422653E0,1.0745279E0,2.5895452E0,1.0244535E1,-9.268467E0,8.897957E0,1.0872455E0,-3.167581E0,1.9784939E1,1.1972346E0,3.2906172E0,-4.441986E-2,1.8930762E0,-4.9765477E0,1.555941E0,1.6965418E1,9.776476E0,-2.2746043E0,2.912119E0,7.494202E0,-1.4522208E0,3.614128E0,-3.3918095E0,-4.73366E-1,1.2038965E1,1.1767035E0,-1.9095027E0,1.705886E1,-3.0533717E0,-1.3703737E1,7.8126435E0,-7.8658336E-1,2.8266425E0,-1.0703737E1,1.9079402E-1,1.0047304E1,4.0204316E-1,-2.042429E0,5.4845815E0,-4.1532273E0,-7.3068137E0,-3.0176346E0,7.5089496E-1,-2.2786775E0,6.7333584E0,6.5352863E-1,4.649999E0,-2.0511694E0,-3.7907429E0,-5.525878E-1,2.5127822E-1,1.7715878E0,4.2453423E0,-1.0506002E0,-6.258941E-1,3.092751E0,-2.7203815E0,1.2855669E0,4.564021E0,8.2057345E-1,1.0186993E0,-8.2202685E-1,1.6123458E0,-1.0425376E0,-2.3898126E-1,5.9170327E0,-1.0189708E0,-1.1793362E-2,-9.766394E-1,-4.650582E0,-4.723934E-1,1.4889133E0,-4.171363E0,9.98169E-2,-3.6537978E-1,1.3561337E0,8.078018E0,2.344579E0,-2.4560143E-1,3.9990103E-1,-2.5584134E-1,-1.6483623E0,-1.5977764E-1,4.9814496E0,-3.601398E0,-1.9019632E0,-1.2952992E0,2.6187072E0],"categories":[],"categories_nodes":[],"categories_segments":[],"categories_sizes":[],"default_left":[0,0,0,0,0,0,0,0,0,0,0,0,0,0,0,0,0,0,0,0,0,0,0,0,0,0,0,0,0,0,0,0,0,0,0,0,0,0,0,0,0,0,0,0,0,0,0,0,0,0,0,0,0,0,0,0,0,0,0,0,0,0,0,0,0,0,0,0,0,0,0,0,0,0,0,0,0,0,0,0,0,0,0,0,0,0,0,0,0,0,0,0,0,0,0,0,0,0,0,0,0,0,0,0,0],"id":5,"left_children":[1,3,5,7,9,11,13,15,17,19,21,23,25,27,29,31,33,35,37,-1,-1,39,41,43,45,47,49,51,53,55,57,59,61,63,65,67,69,71,73,-1,-1,75,77,79,81,83,85,-1,-1,87,89,91,93,95,97,99,-1,101,103,-1,-1,-1,-1,-1,-1,-1,-1,-1,-1,-1,-1,-1,-1,-1,-1,-1,-1,-1,-1,-1,-1,-1,-1,-1,-1,-1,-1,-1,-1,-1,-1,-1,-1,-1,-1,-1,-1,-1,-1,-1,-1,-1,-1,-1,-1],"loss_changes":[3.583415E3,1.2495049E3,2.1972017E3,8.2316675E2,1.9490817E3,1.8190044E3,3.3230786E3,9.8790063E2,7.248113E2,6.480615E1,9.28108E2,8.141084E2,1.6109954E3,2.2984482E3,8.194441E2,1.5062397E3,1.2195817E3,6.397969E2,1.455475E3,0E0,0E0,4.4840576E1,2.2835883E2,2.4257192E3,5.5139795E2,7.6930347E2,1.4458378E3,4.7943813E3,1.890156E3,1.2063313E3,6.946223E2,6.430276E2,5.182428E2,9.6177704E2,5.5499664E2,1.6964331E3,2.6115938E3,8.7169885E2,1.0005867E3,0E0,0E0,1.6512628E2,4.4069263E1,5.0904797E2,3.9633032E2,5.056963E2,4.3474487E1,0E0,0E0,6.190045E2,3.2255652E2,9.691942E2,2.5022017E3,1.9693997E3,1.5846136E3,1.1463557E3,0E0,2.4641113E2,1.3662657E3,0E0,0E0,0E0,0E0,0E0,0E0,0E0,0E0,0E0,0E0,0E0,0E0,0E0,0E0,0E0,0E0,0E0,0E0,0E0,0E0,0E0,0E0,0E0,0E0,0E0,0E0,0E0,0E0,0E0,0E0,0E0,0E0,0E0,0E0,0E0,0E0,0E0,0E0,0E0,0E0,0E0,0E0,0E0,0E0,0E0,0E0],"parents":[2147483647,0,0,1,1,2,2,3,3,4,4,5,5,6,6,7,7,8,8,9,9,10,10,11,11,12,12,13,13,14,14,15,15,16,16,17,17,18,18,21,21,22,22,23,23,24,24,25,25,26,26,27,27,28,28,29,29,30,30,31,31,32,32,33,33,34,34,35,35,36,36,37,37,38,38,41,41,42,42,43,43,44,44,45,45,46,46,49,49,50,50,51,51,52,52,53,53,54,54,55,55,57,57,58,58],"right_children":[2,4,6,8,10,12,14,16,18,20,22,24,26,28,30,32,34,36,38,-1,-1,40,42,44,46,48,50,52,54,56,58,60,62,64,66,68,70,72,74,-1,-1,76,78,80,82,84,86,-1,-1,88,90,92,94,96,98,100,-1,102,104,-1,-1,-1,-1,-1,-1,-1,-1,-1,-1,-1,-1,-1,-1,-1,-1,-1,-1,-1,-1,-1,-1,-1,-1,-1,-1,-1,-1,-1,-1,-1,-1,-1,-1,-1,-1,-1,-1,-1,-1,-1,-1,-1,-1,-1,-1],"split_conditions":[1.3513193E1,2.25E1,6.2234178E0,5.9054157E1,1.1237999E1,3.3999996E0,2.31E1,1.0822583E1,3.0698883E2,2.4900002E1,8.707238E0,1.4973576E1,3.799999E0,8.344251E0,1.0320499E1,1.0320499E1,7.7043357E0,2.6767166E1,1E-1,2.5895452E0,1.0244535E1,1.399425E1,1.8019228E2,5.422584E0,3.0000002E0,5.9129996E0,5.422584E0,1.4000001E0,3.2184274E2,3.924165E1,3.3300003E1,3.8E0,1.04192505E1,3.273531E1,1.1237999E1,1.8922478E2,1.9649353E2,1.337825E1,3.105225E2,-3.3918095E0,-4.73366E-1,2.3279669E1,1.7112999E1,9.771683E0,6.754474E0,8E-1,7.147019E0,7.8126435E0,-7.8658336E-1,3.0895587E2,3.5188794E2,7.7600846E0,1.9E0,1.5977507E2,4.1000004E0,9.33175E0,-4.1532273E0,1.9194994E1,2.5813002E1,7.5089496E-1,-2.2786775E0,6.7333584E0,6.5352863E-1,4.649999E0,-2.0511694E0,-3.7907429E0,-5.525878E-1,2.5127822E-1,1.7715878E0,4.2453423E0,-1.0506002E0,-6.258941E-1,3.092751E0,-2.7203815E0,1.2855669E0,4.564021E0,8.2057345E-1,1.0186993E0,-8.2202685E-1,1.6123458E0,-1.0425376E0,-2.3898126E-1,5.9170327E0,-1.0189708E0,-1.1793362E-2,-9.766394E-1,-4.650582E0,-4.723934E-1,1.4889133E0,-4.171363E0,9.98169E-2,-3.6537978E-1,1.3561337E0,8.078018E0,2.344579E0,-2.4560143E-1,3.9990103E-1,-2.5584134E-1,-1.6483623E0,-1.5977764E-1,4.9814496E0,-3.601398E0,-1.9019632E0,-1.2952992E0,2.6187072E0],"split_indices":[2,1,0,3,0,1,1,0,3,1,2,2,1,0,0,0,2,0,1,0,0,0,3,0,1,0,0,1,3,2,1,1,0,3,0,3,3,2,3,0,0,0,0,3,3,1,3,0,0,3,3,0,1,3,1,0,0,3,0,0,0,0,0,0,0,0,0,0,0,0,0,0,0,0,0,0,0,0,0,0,0,0,0,0,0,0,0,0,0,0,0,0,0,0,0,0,0,0,0,0,0,0,0,0,0],"split_type":[0,0,0,0,0,0,0,0,0,0,0,0,0,0,0,0,0,0,0,0,0,0,0,0,0,0,0,0,0,0,0,0,0,0,0,0,0,0,0,0,0,0,0,0,0,0,0,0,0,0,0,0,0,0,0,0,0,0,0,0,0,0,0,0,0,0,0,0,0,0,0,0,0,0,0,0,0,0,0,0,0,0,0,0,0,0,0,0,0,0,0,0,0,0,0,0,0,0,0,0,0,0,0,0,0],"sum_hessian":[3.897E3,7.6E2,3.137E3,7.45E2,1.5E1,6.17E2,2.52E3,2.13E2,5.32E2,3E0,1.2E1,5.41E2,7.6E1,2.345E3,1.75E2,7.7E1,1.36E2,3.07E2,2.25E2,1E0,2E0,3E0,9E0,4.9E1,4.92E2,4E0,7.2E1,2.28E2,2.117E3,1.9E1,1.56E2,7.1E1,6E0,8E0,1.28E2,2.73E2,3.4E1,1.13E2,1.12E2,2E0,1E0,6E0,3E0,4.2E1,7E0,4.88E2,4E0,3E0,1E0,6.4E1,8E0,1.57E2,7.1E1,1.731E3,3.86E2,1.6E1,3E0,7E1,8.6E1,6.5E1,6E0,4E0,2E0,6E0,2E0,4E0,1.24E2,1.62E2,1.11E2,2.1E1,1.3E1,1.08E2,5E0,5E0,1.07E2,4E0,2E0,2E0,1E0,7E0,3.5E1,1E0,6E0,4.38E2,5E1,1E0,3E0,2.1E1,4.3E1,6E0,2E0,1.19E2,3.8E1,7E0,6.4E1,7.49E2,9.82E2,2.88E2,9.8E1,1.1E1,5E0,1E1,6E1,7.8E1,8E0],"tree_param":{"num_deleted":"0","num_feature":"4","num_nodes":"105","size_leaf_vector":"1"}},{"base_weights":[2.5962178E-2,7.050737E-1,-9.6446085E-1,-9.6781796E-1,1.07567E0,-2.5214024E0,-6.3594806E-1,1.1400771E0,-2.2693691E0,-6.117506E-1,1.4307966E0,-1.7105212E0,-5.0253367E0,3.00864E0,-1.120085E0,4.6342367E-1,7.243284E0,7.1952707E-1,-3.440005E0,-1.0055526E0,8.34875E0,3.104508E0,6.985789E-1,-2.3176062E0,5.3180075E0,-1.4215242E0,-6.8768406E0,5.7134933E0,-4.9622598E-1,-4.447909E0,-8.556668E-1,2.0975645E0,-3.772731E0,-6.16591E-1,1.3425031E1,-3.5003033E0,5.7869835E0,-3.937724E0,4.8814745E0,-5.942152E-1,-7.4257817E0,1.3525153E1,1.2401831E0,4.533138E-1,5.499374E0,2.0767748E0,-5.3487515E-1,-1.8093741E0,-1.2563557E1,1.3974782E0,1.2272731E1,-3.258246E0,2.5729942E0,-1.0254566E1,-4.370326E0,2.2546873E0,1.3316223E1,1.1834244E1,-2.8262079E0,-5.986672E0,7.691482E0,-5.8741945E-1,-4.472693E0,-7.746629E-4,1.3087438E0,1.9035951E0,-2.1723917E0,-1.8129203E0,3.1325676E0,7.720005E-1,4.847369E0,-1.2782562E0,2.266087E0,2.4941583E0,-1.0393806E0,-4.9424267E0,-1.1100907E0,4.2671895E0,-1.5823783E0,-3.32925E-1,1.1225872E0,-3.6732335E0,2.1898057E-1,1.1702311E0,4.302844E0,-2.074446E0,1.1255461E0,-2.2500818E0,6.740543E-1,1.4762461E0,6.133499E0,4.6753687E-1,1.8642508E0,-1.9613005E-1,3.9519932E0,-3.5673547E-1,-1.6741796E0,-4.094494E0,-5.8282703E-1,-5.221122E-1,3.417348E0,3.682789E-1,4.2708716E0,1.0235357E0,-1.3678385E0,-3.3172607E0,-7.661629E-1,5.505715E-1,-2.123936E0,1.4863163E0,-2.4283633E0,-8.1138615E-4,4.9030123E0,-5.6022435E-1,4.0173454E0,4.982799E-1,-1.7467066E0,-1.0435121E0,-2.7448967E0,-4.6318796E-1,4.2317314E0,-1.9477816E-1,4.496633E0,-5.113997E0,-1.1659973E0],"categories":[],"categories_nodes":[],"categories_segments":[],"categories_sizes":[],"default_left":[0,0,0,0,0,0,0,0,0,0,0,0,0,0,0,0,0,0,0,0,0,0,0,0,0,0,0,0,0,0,0,0,0,0,0,0,0,0,0,0,0,0,0,0,0,0,0,0,0,0,0,0,0,0,0,0,0,0,0,0,0,0,0,0,0,0,0,0,0,0,0,0,0,0,0,0,0,0,0,0,0,0,0,0,0,0,0,0,0,0,0,0,0,0,0,0,0,0,0,0,0,0,0,0,0,0,0,0,0,0,0,0,0,0,0,0,0,0,0,0,0,0,0,0,0],"id":6,"left_children":[1,3,5,7,9,11,13,15,17,19,21,23,25,27,29,31,33,35,37,39,41,43,45,47,49,51,53,55,57,59,61,63,65,67,69,71,73,75,77,79,81,83,85,87,89,91,93,95,97,99,101,103,-1,105,107,109,111,113,115,117,119,121,123,-1,-1,-1,-1,-1,-1,-1,-1,-1,-1,-1,-1,-1,-1,-1,-1,-1,-1,-1,-1,-1,-1,-1,-1,-1,-1,-1,-1,-1,-1,-1,-1,-1,-1,-1,-1,-1,-1,-1,-1,-1,-1,-1,-1,-1,-1,-1,-1,-1,-1,-1,-1,-1,-1,-1,-1,-1,-1,-1,-1,-1,-1],"loss_changes":[2.622505E3,1.4350259E3,8.095963E2,1.1548711E3,1.1358511E3,5.5179236E2,2.316603E3,6.6153394E2,9.1219165E2,1.1728542E3,1.9157717E3,9.0837683E2,4.3728003E2,1.4627783E3,1.015161E3,1.01859454E3,7.8568195E2,1.6026577E3,7.9373096E2,8.327468E2,4.983816E2,3.019752E3,1.8540466E3,9.874879E2,4.4637445E2,4.6867737E2,3.2770215E2,2.2577603E3,1.9870703E3,1.6338164E3,1.0394294E3,5.0421643E2,1.4848516E3,5.431698E2,2.253263E2,3.7687482E2,8.2364343E2,4.6589038E2,1.1187383E3,6.7255145E2,7.555791E2,7.0076904E0,1.6932002E2,3.2550127E3,2.0611055E3,1.0947273E3,9.4737103E2,4.2844116E2,7.717346E1,3.9612918E2,1.1264685E2,1.9781804E2,0E0,8.306201E1,4.6696387E2,1.744433E3,1.0886411E3,2.5966113E2,7.894304E2,5.7113574E2,6.141666E2,9.73943E2,4.7903613E2,0E0,0E0,0E0,0E0,0E0,0E0,0E0,0E0,0E0,0E0,0E0,0E0,0E0,0E0,0E0,0E0,0E0,0E0,0E0,0E0,0E0,0E0,0E0,0E0,0E0,0E0,0E0,0E0,0E0,0E0,0E0,0E0,0E0,0E0,0E0,0E0,0E0,0E0,0E0,0E0,0E0,0E0,0E0,0E0,0E0,0E0,0E0,0E0,0E0,0E0,0E0,0E0,0E0,0E0,0E0,0E0,0E0,0E0,0E0,0E0,0E0,0E0],"parents":[2147483647,0,0,1,1,2,2,3,3,4,4,5,5,6,6,7,7,8,8,9,9,10,10,11,11,12,12,13,13,14,14,15,15,16,16,17,17,18,18,19,19,20,20,21,21,22,22,23,23,24,24,25,25,26,26,27,27,28,28,29,29,30,30,31,31,32,32,33,33,34,34,35,35,36,36,37,37,38,38,39,39,40,40,41,41,42,42,43,43,44,44,45,45,46,46,47,47,48,48,49,49,50,50,51,51,53,53,54,54,55,55,56,56,57,57,58,58,59,59,60,60,61,61,62,62],"right_children":[2,4,6,8,10,12,14,16,18,20,22,24,26,28,30,32,34,36,38,40,42,44,46,48,50,52,54,56,58,60,62,64,66,68,70,72,74,76,78,80,82,84,86,88,90,92,94,96,98,100,102,104,-1,106,108,110,112,114,116,118,120,122,124,-1,-1,-1,-1,-1,-1,-1,-1,-1,-1,-1,-1,-1,-1,-1,-1,-1,-1,-1,-1,-1,-1,-1,-1,-1,-1,-1,-1,-1,-1,-1,-1,-1,-1,-1,-1,-1,-1,-1,-1,-1,-1,-1,-1,-1,-1,-1,-1,-1,-1,-1,-1,-1,-1,-1,-1,-1,-1,-1,-1,-1,-1],"split_conditions":[2.1758419E1,2.7191368E1,1.6504276E2,8.246215E0,6.2234178E0,2.1130919E1,1.8373207E2,2.0140705E1,7.0609174E0,9E0,1.5067166E1,2.0426748E1,2.7000003E0,2.3662996E1,1.8756458E2,5.7E0,5.146333E0,5.055917E0,2.7529665E1,2.0598795E1,1.8391735E1,1E-1,6E-1,1.9983835E1,7.566186E1,2.6124195E1,2.3808836E1,2.1498415E1,2.3667091E1,8.699999E0,2.42E1,1E-1,9.33175E0,2.1316135E1,1E-1,4.7000003E0,1.8472595E1,7.433E0,1.7128138E1,1.864369E1,1E-1,1.01E1,4.826436E1,1.6191287E2,2.153089E1,4E-1,3.586328E2,9.467409E1,2.0340082E1,3.1E1,1E-1,1.7128138E1,2.5729942E0,1.3343312E2,2.5462166E1,2.0497583E1,1.7539146E2,2.416508E1,4E-1,2.4590086E1,1.8503221E2,2.38E1,2.2461807E1,-7.746629E-4,1.3087438E0,1.9035951E0,-2.1723917E0,-1.8129203E0,3.1325676E0,7.720005E-1,4.847369E0,-1.2782562E0,2.266087E0,2.4941583E0,-1.0393806E0,-4.9424267E0,-1.1100907E0,4.2671895E0,-1.5823783E0,-3.32925E-1,1.1225872E0,-3.6732335E0,2.1898057E-1,1.1702311E0,4.302844E0,-2.074446E0,1.1255461E0,-2.2500818E0,6.740543E-1,1.4762461E0,6.133499E0,4.6753687E-1,1.8642508E0,-1.9613005E-1,3.9519932E0,-3.5673547E-1,-1.6741796E0,-4.094494E0,-5.8282703E-1,-5.221122E-1,3.417348E0,3.682789E-1,4.2708716E0,1.0235357E0,-1.3678385E0,-3.3172607E0,-7.661629E-1,5.505715E-1,-2.123936E0,1.4863163E0,-2.4283633E0,-8.1138615E-4,4.9030123E0,-5.6022435E-1,4.0173454E0,4.982799E-1,-1.7467066E0,-1.0435121E0,-2.7448967E0,-4.6318796E-1,4.2317314E0,-1.9477816E-1,4.496633E0,-5.113997E0,-1.1659973E0],"split_indices":[2,3,3,3,0,0,3,2,0,1,0,0,1,0,3,1,0,0,0,2,2,1,1,0,3,2,0,0,2,1,1,1,0,2,1,1,2,0,3,2,1,1,3,3,2,1,3,3,0,1,1,3,0,3,0,0,3,0,1,0,3,1,2,0,0,0,0,0,0,0,0,0,0,0,0,0,0,0,0,0,0,0,0,0,0,0,0,0,0,0,0,0,0,0,0,0,0,0,0,0,0,0,0,0,0,0,0,0,0,0,0,0,0,0,0,0,0,0,0,0,0,0,0,0,0],"split_type":[0,0,0,0,0,0,0,0,0,0,0,0,0,0,0,0,0,0,0,0,0,0,0,0,0,0,0,0,0,0,0,0,0,0,0,0,0,0,0,0,0,0,0,0,0,0,0,0,0,0,0,0,0,0,0,0,0,0,0,0,0,0,0,0,0,0,0,0,0,0,0,0,0,0,0,0,0,0,0,0,0,0,0,0,0,0,0,0,0,0,0,0,0,0,0,0,0,0,0,0,0,0,0,0,0,0,0,0,0,0,0,0,0,0,0,0,0,0,0,0,0,0,0,0,0],"sum_hessian":[3.897E3,2.312E3,1.585E3,4.19E2,1.893E3,2.75E2,1.31E3,1.6E2,2.59E2,3.29E2,1.564E3,2.09E2,6.6E1,1.53E2,1.157E3,1.45E2,1.5E1,7.3E1,1.86E2,3.16E2,1.3E1,4.75E2,1.089E3,1.93E2,1.6E1,2.3E1,4.3E1,8.6E1,6.7E1,8.4E1,1.073E3,1.05E2,4E1,7E0,8E0,4E1,3.3E1,1.76E2,1E1,2.98E2,1.8E1,7E0,6E0,2.26E2,2.49E2,5.14E2,5.75E2,1.85E2,8E0,1.1E1,5E0,2E1,3E0,1.7E1,2.6E1,6E1,2.6E1,1E1,5.7E1,7.5E1,9E0,1E3,7.3E1,5.5E1,5E1,1E1,3E1,5E0,2E0,2E0,6E0,3.8E1,2E0,2.6E1,7E0,2E0,1.74E2,5E0,5E0,2.67E2,3.1E1,1.1E1,7E0,1E0,6E0,1E0,5E0,4.1E1,1.85E2,2.41E2,8E0,4.58E2,5.6E1,5.71E2,4E0,1.6E2,2.5E1,7E0,1E0,9E0,2E0,1E0,4E0,3E0,1.7E1,1.5E1,2E0,8E0,1.8E1,4.8E1,1.2E1,5E0,2.1E1,1E0,9E0,2.3E1,3.4E1,4.3E1,3.2E1,4E0,5E0,9.97E2,3E0,2E0,7.1E1],"tree_param":{"num_deleted":"0","num_feature":"4","num_nodes":"125","size_leaf_vector":"1"}},{"base_weights":[2.3972016E-2,6.2556946E-1,-6.050981E-1,4.4391298E-1,3.8876984E0,-3.1077278E0,-4.5452052E-1,5.030765E-1,-8.132533E0,6.139091E0,7.5707816E-2,-2.3235399E-1,-6.6971045E0,-3.4112697E0,-3.257027E-1,2.1242616E0,2.0549113E-1,-3.9231355E0,-2.026158E0,9.3240185E0,2.0063772E0,-1.0711727E0,8.318106E0,4.1343495E-1,-3.8566256E0,-6.98265E0,1.0085284E0,-1.3214557E0,-6.6805797E0,1.1902393E0,-4.9871498E-1,1.8752193E0,1.5994433E1,1.07475065E-1,5.2889423E0,-2.503591E0,2.1705608E0,6.118668E0,1.1742634E1,4.8958836E0,-3.4296684E0,-6.427028E0,2.1423264E-1,1.0424653E1,-1.6212273E-2,-5.749284E-1,9.2397995E0,-7.338098E0,6.766281E-1,-8.780478E0,4.3374038E-1,-7.677496E0,4.5185266E0,2.9338577E0,-2.3467238E0,-2.1429825E0,-2.6449072E-1,1.2131828E0,2.0275132E-1,7.900378E0,9.683915E-2,1.7600372E-1,-2.852225E-1,6.256706E-1,3.4461398E0,-1.5660225E-1,1.9411252E0,2.2905757E0,-2.9494886E0,4.0495024E0,1.1327533E0,2.39346E0,3.0472434E-1,-1.8686874E0,3.6844838E0,-3.606419E0,-5.3550047E-1,1.5356907E0,-3.6757252E-1,3.899883E0,4.0496752E-1,-1.360771E0,4.5946684E-1,-1.8578282E-1,3.4006412E0,-2.5434694E0,-1.5995082E0,4.9203876E-2,2.552788E-1,-3.2407997E0,1.1095533E0,3.8826543E-1,-3.0970194E0,-2.9063156E0,-1.3072225E0,1.9581597E0,7.517739E-2,6.829496E-1,3.9379168E0,2.4666567E0,-1.4014333E0,1.1697768E-1,-1.3079966E0,2.856123E0,-9.668382E-2],"categories":[],"categories_nodes":[],"categories_segments":[],"categories_sizes":[],"default_left":[0,0,0,0,0,0,0,0,0,0,0,0,0,0,0,0,0,0,0,0,0,0,0,0,0,0,0,0,0,0,0,0,0,0,0,0,0,0,0,0,0,0,0,0,0,0,0,0,0,0,0,0,0,0,0,0,0,0,0,0,0,0,0,0,0,0,0,0,0,0,0,0,0,0,0,0,0,0,0,0,0,0,0,0,0,0,0,0,0,0,0,0,0,0,0,0,0,0,0,0,0,0,0,0,0],"id":7,"left_children":[1,3,5,7,9,11,13,15,17,19,21,23,25,27,29,31,33,-1,35,37,39,41,43,45,-1,47,-1,49,51,53,55,57,59,61,63,-1,65,67,69,71,73,75,77,79,-1,81,83,85,87,89,91,93,95,97,99,101,103,-1,-1,-1,-1,-1,-1,-1,-1,-1,-1,-1,-1,-1,-1,-1,-1,-1,-1,-1,-1,-1,-1,-1,-1,-1,-1,-1,-1,-1,-1,-1,-1,-1,-1,-1,-1,-1,-1,-1,-1,-1,-1,-1,-1,-1,-1,-1,-1],"loss_changes":[1.475565E3,1.1792999E3,7.1684454E2,9.625937E2,9.006753E2,1.1130901E3,6.840956E2,9.0510516E2,3.6601904E2,8.5001074E2,3.8703195E2,5.0257684E2,1.6134253E2,5.0359058E2,4.530207E2,9.751963E2,7.9017E2,0E0,2.0375175E2,2.1499365E2,4.8801587E2,2.4921689E2,8.8744965E1,5.200079E2,0E0,1.3292163E2,0E0,6.191346E2,3.584635E2,1.0984641E3,5.959955E2,7.4379034E2,8.017351E2,7.9062213E2,5.7169635E2,0E0,6.1265884E1,5.1048627E2,2.287793E2,2.3109229E2,5.6028625E2,1.603263E2,2.1807921E2,7.592041E1,0E0,4.575085E2,1.309881E2,5.7737305E1,1.2848485E-1,2.6706744E2,3.743555E2,1.3798767E2,2.4082993E1,7.674359E2,1.4880259E3,1.0854865E3,7.7039264E2,0E0,0E0,0E0,0E0,0E0,0E0,0E0,0E0,0E0,0E0,0E0,0E0,0E0,0E0,0E0,0E0,0E0,0E0,0E0,0E0,0E0,0E0,0E0,0E0,0E0,0E0,0E0,0E0,0E0,0E0,0E0,0E0,0E0,0E0,0E0,0E0,0E0,0E0,0E0,0E0,0E0,0E0,0E0,0E0,0E0,0E0,0E0,0E0],"parents":[2147483647,0,0,1,1,2,2,3,3,4,4,5,5,6,6,7,7,8,8,9,9,10,10,11,11,12,12,13,13,14,14,15,15,16,16,18,18,19,19,20,20,21,21,22,22,23,23,25,25,27,27,28,28,29,29,30,30,31,31,32,32,33,33,34,34,36,36,37,37,38,38,39,39,40,40,41,41,42,42,43,43,45,45,46,46,47,47,48,48,49,49,50,50,51,51,52,52,53,53,54,54,55,55,56,56],"right_children":[2,4,6,8,10,12,14,16,18,20,22,24,26,28,30,32,34,-1,36,38,40,42,44,46,-1,48,-1,50,52,54,56,58,60,62,64,-1,66,68,70,72,74,76,78,80,-1,82,84,86,88,90,92,94,96,98,100,102,104,-1,-1,-1,-1,-1,-1,-1,-1,-1,-1,-1,-1,-1,-1,-1,-1,-1,-1,-1,-1,-1,-1,-1,-1,-1,-1,-1,-1,-1,-1,-1,-1,-1,-1,-1,-1,-1,-1,-1,-1,-1,-1,-1,-1,-1,-1,-1,-1],"split_conditions":[1.966536E1,2.7767166E1,2.3704996E0,4.69E1,1.9079048E2,3.00767E1,2.0140705E1,1.0799999E1,2.0994253E1,2.8840086E1,3.2687854E2,1.47E1,4.9184486E1,1.993048E1,2.1316135E1,2.5499998E1,1.9493261E1,-3.9231355E0,6.962876E1,1.25843376E2,9E-1,2.826925E1,1.55843E1,2E0,-3.8566256E0,2.9300003E1,1.0085284E0,2.7191368E1,3.3300003E1,2.1E0,4.826436E1,1.04192505E1,1.1237999E1,2.387363E2,1.9276997E2,-2.503591E0,2.156925E1,1.0532159E2,2.850675E1,1.5379206E1,7E0,2E-1,2.850675E1,1.6000001E0,-1.6212273E-2,3.0698883E2,-6.328334E-1,1.6609162E0,2.3416504E-2,8.8E0,3.489647E2,7.0000005E-1,1.6960918E1,2.8195501E1,1.6311794E1,1.2487999E1,5.3626045E1,1.2131828E0,2.0275132E-1,7.900378E0,9.683915E-2,1.7600372E-1,-2.852225E-1,6.256706E-1,3.4461398E0,-1.5660225E-1,1.9411252E0,2.2905757E0,-2.9494886E0,4.0495024E0,1.1327533E0,2.39346E0,3.0472434E-1,-1.8686874E0,3.6844838E0,-3.606419E0,-5.3550047E-1,1.5356907E0,-3.6757252E-1,3.899883E0,4.0496752E-1,-1.360771E0,4.5946684E-1,-1.8578282E-1,3.4006412E0,-2.5434694E0,-1.5995082E0,4.9203876E-2,2.552788E-1,-3.2407997E0,1.1095533E0,3.8826543E-1,-3.0970194E0,-2.9063156E0,-1.3072225E0,1.9581597E0,7.517739E-2,6.829496E-1,3.9379168E0,2.4666567E0,-1.4014333E0,1.1697768E-1,-1.3079966E0,2.856123E0,-9.668382E-2],"split_indices":[2,0,0,1,3,2,2,2,0,0,3,1,2,2,2,1,2,0,3,3,1,0,2,1,0,1,0,3,1,1,3,0,0,3,3,0,0,3,0,2,1,1,0,1,0,3,0,0,0,1,3,1,0,0,3,0,3,0,0,0,0,0,0,0,0,0,0,0,0,0,0,0,0,0,0,0,0,0,0,0,0,0,0,0,0,0,0,0,0,0,0,0,0,0,0,0,0,0,0,0,0,0,0,0,0],"split_type":[0,0,0,0,0,0,0,0,0,0,0,0,0,0,0,0,0,0,0,0,0,0,0,0,0,0,0,0,0,0,0,0,0,0,0,0,0,0,0,0,0,0,0,0,0,0,0,0,0,0,0,0,0,0,0,0,0,0,0,0,0,0,0,0,0,0,0,0,0,0,0,0,0,0,0,0,0,0,0,0,0,0,0,0,0,0,0,0,0,0,0,0,0,0,0,0,0,0,0,0,0,0,0,0,0],"sum_hessian":[3.897E3,1.992E3,1.905E3,1.888E3,1.04E2,1.07E2,1.798E3,1.876E3,1.2E1,6.5E1,3.9E1,6E1,4.7E1,7.4E1,1.724E3,2.9E2,1.586E3,6E0,6E0,3.6E1,2.9E1,3.5E1,4E0,5.8E1,2E0,4.6E1,1E0,4.6E1,2.8E1,1.76E2,1.548E3,2.86E2,4E0,1.557E3,2.9E1,2E0,4E0,1.7E1,1.9E1,1.9E1,1E1,6E0,2.9E1,3E0,1E0,5.3E1,5E0,4.4E1,2E0,8E0,3.8E1,2.6E1,2E0,1.18E2,5.8E1,1.92E2,1.356E3,1.01E2,1.85E2,2E0,2E0,1.072E3,4.85E2,2E1,9E0,3E0,1E0,1.6E1,1E0,1.5E1,4E0,1E1,9E0,9E0,1E0,2E0,4E0,6E0,2.3E1,2E0,1E0,1.8E1,3.5E1,1E0,4E0,2.6E1,1.8E1,1E0,1E0,7E0,1E0,3.6E1,2E0,1.5E1,1.1E1,1E0,1E0,1.12E2,6E0,1E1,4.8E1,9E1,1.02E2,7E0,1.349E3],"tree_param":{"num_deleted":"0","num_feature":"4","num_nodes":"105","size_leaf_vector":"1"}},{"base_weights":[2.0614956E-2,-1.8670461E0,1.5547928E-1,-1.2445766E0,-4.0134993E0,5.6285965E-1,-4.405369E-1,-1.9908333E0,7.0181495E-1,-6.7018633E0,-2.7353513E0,-2.4875487E-1,1.48711E0,-3.0043607E0,-8.83467E-3,-7.2995776E-1,-4.349933E0,8.158851E0,-1.0583808E0,-2.8260317E0,-1.0846121E0,6.3501935E0,-3.8891993E0,-1.0570662E0,1.0909332E0,2.4230926E0,-1.6192499E-1,-1.9839109E0,-6.6659083E0,3.7741473E-1,-3.247542E0,-1.0957621E0,5.158089E0,-4.9638305E0,-3.2429624E0,2.7114868E-3,1.2819114E1,-1.7222338E0,6.508597E0,-3.5518236E0,1.6537523E0,2.5365155E0,-3.103861E-1,-8.360286E-1,-6.1756134E0,-4.6663192E-1,-2.4668944E0,-2.0166028E0,2.312523E0,2.9093478E0,-1.96056E0,-9.889933E-1,6.624083E0,-1.3707212E0,-7.017674E0,4.534677E-1,-8.916383E0,2.3004518E0,-3.441822E-1,2.3755054E0,-4.423485E0,1.7004603E0,-4.8290193E-1,-3.2677683E-1,-2.3725498E0,-1.2430658E0,2.4881654E0,7.288212E-1,4.9467354E0,1.4718881E0,-8.0935425E-1,2.4703555E0,1.9962503E-1,-1.3509003E0,-1.0474377E-1,6.2321323E-1,5.7431605E-2,-7.077947E-1,2.1177251E0,-2.070007E0,1.2468871E0,-2.9499906E-1,7.877381E-1,-4.129278E-1,-2.094412E0,1.6601492E0,-8.648161E-1,4.693922E0,5.0413793E-1,7.7402246E-1,5.1292753E0,-5.1906166E0,-2.0127599E-1,4.268218E-1,-8.3106875E-1,1.1773789E0,4.645875E0,-7.803026E-1,1.0426753E0,-3.4741932E-1,-3.1923716E0,-1.615785E0,2.9117527E0,-9.64158E-1,-3.6419914E0,-1.2515054E0,8.580334E-1,6.469168E-2,-6.041609E-1,1.6167986E0,-1.7141049E0,-1.1224239E0,-2.679223E0],"categories":[],"categories_nodes":[],"categories_segments":[],"categories_sizes":[],"default_left":[0,0,0,0,0,0,0,0,0,0,0,0,0,0,0,0,0,0,0,0,0,0,0,0,0,0,0,0,0,0,0,0,0,0,0,0,0,0,0,0,0,0,0,0,0,0,0,0,0,0,0,0,0,0,0,0,0,0,0,0,0,0,0,0,0,0,0,0,0,0,0,0,0,0,0,0,0,0,0,0,0,0,0,0,0,0,0,0,0,0,0,0,0,0,0,0,0,0,0,0,0,0,0,0,0,0,0,0,0,0,0,0,0],"id":8,"left_children":[1,3,5,7,9,11,13,15,17,19,21,23,25,27,29,31,33,35,37,-1,39,41,43,45,47,49,51,53,55,57,59,61,-1,-1,63,65,67,69,71,73,75,-1,-1,77,79,81,83,85,87,89,91,93,95,97,99,101,103,105,107,109,111,-1,-1,-1,-1,-1,-1,-1,-1,-1,-1,-1,-1,-1,-1,-1,-1,-1,-1,-1,-1,-1,-1,-1,-1,-1,-1,-1,-1,-1,-1,-1,-1,-1,-1,-1,-1,-1,-1,-1,-1,-1,-1,-1,-1,-1,-1,-1,-1,-1,-1,-1,-1],"loss_changes":[9.926358E2,3.423913E2,8.838164E2,2.9625626E2,1.8096344E2,1.6221621E3,1.6358363E3,4.340808E2,7.568082E2,2.6462573E2,4.5451398E2,1.2486368E3,1.5608381E3,7.8263416E2,1.5849269E3,6.548232E2,6.348827E2,4.180725E2,2.4730727E2,0E0,5.3166706E1,8.646768E1,2.5312701E2,5.9735236E2,1.6521854E3,1.3805696E3,2.0663357E3,5.0893817E2,7.4105396E2,1.5716201E3,9.0317957E2,3.4282706E2,0E0,0E0,4.7369894E2,2.0625311E2,2.2685315E2,2.977792E2,3.4860092E1,1.0613052E1,2.0802011E0,0E0,0E0,2.211055E2,1.8585364E2,8.1429016E2,1.0340447E3,8.203185E2,2.603198E3,2.6702056E3,1.274417E3,1.4129849E3,8.9615466E2,9.093544E2,3.6986475E2,7.006169E2,6.043745E2,1.131189E3,7.7064856E2,6.158981E2,3.1090527E2,0E0,0E0,0E0,0E0,0E0,0E0,0E0,0E0,0E0,0E0,0E0,0E0,0E0,0E0,0E0,0E0,0E0,0E0,0E0,0E0,0E0,0E0,0E0,0E0,0E0,0E0,0E0,0E0,0E0,0E0,0E0,0E0,0E0,0E0,0E0,0E0,0E0,0E0,0E0,0E0,0E0,0E0,0E0,0E0,0E0,0E0,0E0,0E0,0E0,0E0,0E0,0E0],"parents":[2147483647,0,0,1,1,2,2,3,3,4,4,5,5,6,6,7,7,8,8,9,9,10,10,11,11,12,12,13,13,14,14,15,15,16,16,17,17,18,18,20,20,21,21,22,22,23,23,24,24,25,25,26,26,27,27,28,28,29,29,30,30,31,31,34,34,35,35,36,36,37,37,38,38,39,39,40,40,43,43,44,44,45,45,46,46,47,47,48,48,49,49,50,50,51,51,52,52,53,53,54,54,55,55,56,56,57,57,58,58,59,59,60,60],"right_children":[2,4,6,8,10,12,14,16,18,20,22,24,26,28,30,32,34,36,38,-1,40,42,44,46,48,50,52,54,56,58,60,62,-1,-1,64,66,68,70,72,74,76,-1,-1,78,80,82,84,86,88,90,92,94,96,98,100,102,104,106,108,110,112,-1,-1,-1,-1,-1,-1,-1,-1,-1,-1,-1,-1,-1,-1,-1,-1,-1,-1,-1,-1,-1,-1,-1,-1,-1,-1,-1,-1,-1,-1,-1,-1,-1,-1,-1,-1,-1,-1,-1,-1,-1,-1,-1,-1,-1,-1,-1,-1,-1,-1,-1,-1],"split_conditions":[2.8392503E0,3.00767E1,1.9383833E1,2.2668568E1,3.388019E1,2E-1,2.0578836E1,1.7072504E1,2.397989E1,1E-1,3.404808E1,1.2127583E1,1.4404666E1,2.0340082E1,3.1810638E1,1.6946787E1,1.7373497E1,2.3377836E1,2.9024128E1,-2.8260317E0,3.4457413E2,2.4984164E0,3.3087296E2,8.522584E0,1.5381207E2,3.4679794E1,1.9001753E1,3.185904E2,3.273531E1,1E-1,1.7870844E2,6.1154146E0,5.158089E0,-4.9638305E0,2.088E0,8E-1,9.167676E0,-6.328334E-1,2.9914679E1,1.4580001E0,1.0129999E0,2.5365155E0,-3.103861E-1,2.4984164E0,2.6163332E0,7.3421664E0,2.9354904E1,5.465399E0,1.7078111E2,3.388019E1,1.0885482E1,3.4999998E0,3.0703587E1,1.8788567E2,2.6250393E1,2.571807E1,4E-1,4.5072502E1,8.4E0,2.31E1,2.7767166E1,1.7004603E0,-4.8290193E-1,-3.2677683E-1,-2.3725498E0,-1.2430658E0,2.4881654E0,7.288212E-1,4.9467354E0,1.4718881E0,-8.0935425E-1,2.4703555E0,1.9962503E-1,-1.3509003E0,-1.0474377E-1,6.2321323E-1,5.7431605E-2,-7.077947E-1,2.1177251E0,-2.070007E0,1.2468871E0,-2.9499906E-1,7.877381E-1,-4.129278E-1,-2.094412E0,1.6601492E0,-8.648161E-1,4.693922E0,5.0413793E-1,7.7402246E-1,5.1292753E0,-5.1906166E0,-2.0127599E-1,4.268218E-1,-8.3106875E-1,1.1773789E0,4.645875E0,-7.803026E-1,1.0426753E0,-3.4741932E-1,-3.1923716E0,-1.615785E0,2.9117527E0,-9.64158E-1,-3.6419914E0,-1.2515054E0,8.580334E-1,6.469168E-2,-6.041609E-1,1.6167986E0,-1.7141049E0,-1.1224239E0,-2.679223E0],"split_indices":[0,2,0,2,2,1,0,2,2,1,2,0,0,0,2,2,2,2,2,0,3,0,3,0,3,2,0,3,3,1,3,3,0,0,0,1,3,0,2,0,0,0,0,0,0,0,2,3,3,2,3,1,2,3,2,3,1,3,1,1,0,0,0,0,0,0,0,0,0,0,0,0,0,0,0,0,0,0,0,0,0,0,0,0,0,0,0,0,0,0,0,0,0,0,0,0,0,0,0,0,0,0,0,0,0,0,0,0,0,0,0,0,0],"split_type":[0,0,0,0,0,0,0,0,0,0,0,0,0,0,0,0,0,0,0,0,0,0,0,0,0,0,0,0,0,0,0,0,0,0,0,0,0,0,0,0,0,0,0,0,0,0,0,0,0,0,0,0,0,0,0,0,0,0,0,0,0,0,0,0,0,0,0,0,0,0,0,0,0,0,0,0,0,0,0,0,0,0,0,0,0,0,0,0,0,0,0,0,0,0,0,0,0,0,0,0,0,0,0,0,0,0,0,0,0,0,0,0,0],"sum_hessian":[3.897E3,2.59E2,3.638E3,2.02E2,5.7E1,2.161E3,1.477E3,1.46E2,5.6E1,1.7E1,4E1,1.151E3,1.01E3,2.12E2,1.265E3,9.6E1,5E1,1E1,4.6E1,1.1E1,6E0,4E0,3.6E1,7.18E2,4.33E2,6.44E2,3.66E2,1.67E2,4.5E1,1.131E3,1.34E2,9.5E1,1E0,3E0,4.7E1,4E0,6E0,4.3E1,3E0,3E0,3E0,3E0,1E0,1.6E1,2E1,5.07E2,2.11E2,1.22E2,3.11E2,5.8E2,6.4E1,3.27E2,3.9E1,1.5E2,1.7E1,1.1E1,3.4E1,3.08E2,8.23E2,2.3E1,1.11E2,6E0,8.9E1,3.3E1,1.4E1,3E0,1E0,2E0,4E0,5E0,3.8E1,2E0,1E0,2E0,1E0,2E0,1E0,1.4E1,2E0,1.9E1,1E0,4.35E2,7.2E1,1.71E2,4E1,1.2E1,1.1E2,1.3E1,2.98E2,5.68E2,1.2E1,4E0,6E1,1.39E2,1.88E2,3.1E1,8E0,1.2E2,3E1,7E0,1E1,7E0,4E0,1.3E1,2.1E1,2.4E1,2.84E2,6.17E2,2.06E2,1.7E1,6E0,9.8E1,1.3E1],"tree_param":{"num_deleted":"0","num_feature":"4","num_nodes":"113","size_leaf_vector":"1"}},{"base_weights":[1.6140768E-2,1.239383E0,-1.4667849E-1,6.685373E-1,5.781846E0,-5.138115E0,-8.3489776E-2,1.4308898E0,-1.4623574E0,8.197155E0,-4.9406366E0,-5.837542E0,3.635673E0,1.8779536E-1,-7.2445583E-1,2.206064E0,-7.0175683E-1,-4.0589867E0,4.83148E0,1.0811722E1,2.1957557E0,-8.673349E0,2.8267689E0,-6.960256E0,7.703509E-1,9.781082E-2,8.69282E0,-3.4725058E0,-4.9099344E-1,1.9093853E0,1.4640707E1,8.91971E0,-2.028325E0,-4.7222977E0,6.43715E0,1.2575943E0,1.5395939E1,1.4018483E1,6.41665E-1,-9.0953255E-1,4.1654973E0,-3.5684247E0,-1.2397003E-1,1.480628E0,4.787407E-1,5.0641376E-1,-7.4143662E0,-5.033339E0,1.0186383E1,-1.0105824E0,3.7324905E-1,1.2771059E1,-6.350113E0,-7.0607014E0,3.8873872E-1,-6.0354567E-1,4.677192E0,3.8785416E-1,2.1946168E0,5.1785502E0,6.2342954E-1,-3.988479E-1,4.7922287E0,-1.3829118E0,2.0433106E-1,-7.8221244E-1,-2.0470624E0,-9.3363136E-1,2.8807468E0,9.34856E-1,-4.0232434E0,9.450646E-2,7.314446E0,5.768517E0,2.6797552E0,-6.9318676E-1,1.8997055E0,1.4849578E0,-1.7405804E0,2.1437073E-2,1.9399625E-1,-1.5954272E0,1.8233134E0,-4.8055964E0,-1.9128047E0,-1.8360167E0,-1.02971084E-1,9.359534E-1,3.6479194E0,3.177999E-1,-4.8880303E-1,1.7633976E0,8.5364506E-2,-7.053251E-1,4.673392E0,-2.8044086E0,1.2959193E0,-1.6874018E0,-5.681341E0,2.7633705E0,-1.4760926E0,-1.13941304E-1,-1.8149391E0,-1.999131E0,2.1211574E0],"categories":[],"categories_nodes":[],"categories_segments":[],"categories_sizes":[],"default_left":[0,0,0,0,0,0,0,0,0,0,0,0,0,0,0,0,0,0,0,0,0,0,0,0,0,0,0,0,0,0,0,0,0,0,0,0,0,0,0,0,0,0,0,0,0,0,0,0,0,0,0,0,0,0,0,0,0,0,0,0,0,0,0,0,0,0,0,0,0,0,0,0,0,0,0,0,0,0,0,0,0,0,0,0,0,0,0,0,0,0,0,0,0,0,0,0,0,0,0,0,0,0,0,0,0],"id":9,"left_children":[1,3,5,7,9,11,13,15,17,19,21,23,-1,25,27,29,31,33,35,37,39,41,43,45,47,49,51,53,55,57,59,61,63,65,67,69,71,73,75,77,-1,-1,-1,-1,79,81,83,85,87,89,91,93,95,97,99,101,103,-1,-1,-1,-1,-1,-1,-1,-1,-1,-1,-1,-1,-1,-1,-1,-1,-1,-1,-1,-1,-1,-1,-1,-1,-1,-1,-1,-1,-1,-1,-1,-1,-1,-1,-1,-1,-1,-1,-1,-1,-1,-1,-1,-1,-1,-1,-1,-1],"loss_changes":[7.765363E2,1.1837493E3,1.084871E3,6.6488556E2,1.3613027E3,5.8975574E2,5.911697E2,4.991532E2,1.7846293E3,6.3528467E2,3.1445245E2,3.1695044E2,0E0,1.8275007E3,6.469185E2,7.8733484E2,1.0519381E3,5.664877E2,1.1888356E3,9.367798E2,5.208071E2,1.8134857E2,1.7441961E1,1.258197E2,4.3380566E2,7.223972E2,1.6148145E3,1.0972819E3,5.4554034E2,7.138049E2,1.2876917E2,7.442556E2,5.0671252E2,3.0661816E2,1.810171E2,7.233552E2,1.0764015E3,4.1118555E2,1.4903603E2,3.7271674E2,0E0,0E0,0E0,0E0,1.5895736E-1,1.2967195E2,2.0162988E2,2.3383415E1,3.8977356E0,6.049747E2,9.236078E2,8.855559E2,2.3230469E2,5.927715E2,1.8720449E3,1.1114583E3,5.899703E2,0E0,0E0,0E0,0E0,0E0,0E0,0E0,0E0,0E0,0E0,0E0,0E0,0E0,0E0,0E0,0E0,0E0,0E0,0E0,0E0,0E0,0E0,0E0,0E0,0E0,0E0,0E0,0E0,0E0,0E0,0E0,0E0,0E0,0E0,0E0,0E0,0E0,0E0,0E0,0E0,0E0,0E0,0E0,0E0,0E0,0E0,0E0,0E0],"parents":[2147483647,0,0,1,1,2,2,3,3,4,4,5,5,6,6,7,7,8,8,9,9,10,10,11,11,13,13,14,14,15,15,16,16,17,17,18,18,19,19,20,20,21,21,22,22,23,23,24,24,25,25,26,26,27,27,28,28,29,29,30,30,31,31,32,32,33,33,34,34,35,35,36,36,37,37,38,38,39,39,44,44,45,45,46,46,47,47,48,48,49,49,50,50,51,51,52,52,53,53,54,54,55,55,56,56],"right_children":[2,4,6,8,10,12,14,16,18,20,22,24,-1,26,28,30,32,34,36,38,40,42,44,46,48,50,52,54,56,58,60,62,64,66,68,70,72,74,76,78,-1,-1,-1,-1,80,82,84,86,88,90,92,94,96,98,100,102,104,-1,-1,-1,-1,-1,-1,-1,-1,-1,-1,-1,-1,-1,-1,-1,-1,-1,-1,-1,-1,-1,-1,-1,-1,-1,-1,-1,-1,-1,-1,-1,-1,-1,-1,-1,-1,-1,-1,-1,-1,-1,-1,-1,-1,-1,-1,-1,-1],"split_conditions":[1.1874544E1,1.1525623E1,1.210157E1,1.0799999E1,2.3987999E1,1.68E1,3.2039697E2,2.1221334E1,2.1498415E1,3.301621E2,1.5977507E2,2.43005E1,3.635673E0,3.185904E2,3.2889432E2,2.0885084E1,7.9932976E0,3.5442343E2,1.7278294E2,4E0,1.6999999E0,3.1E0,2.60505E1,1.3433443E1,7E-1,2.7191368E1,1.6644249E1,2.3219301E1,2.5555922E1,8.699999E0,2.1130919E1,2.3142168E1,1.4000002E0,2.4322417E2,1.0829959E1,1.6652686E2,1.0829959E1,1.1592894E1,2.133925E1,5.2421665E0,4.1654973E0,-3.5684247E0,-1.2397003E-1,1.480628E0,2.6546335E1,2.8392503E0,2.571807E1,2E-1,2.5321337E1,4.3221893E0,1.2324414E1,2.088E0,2.3667091E1,1.68E1,3.247192E1,2.0994253E1,3.3576508E2,3.8785416E-1,2.1946168E0,5.1785502E0,6.2342954E-1,-3.988479E-1,4.7922287E0,-1.3829118E0,2.0433106E-1,-7.8221244E-1,-2.0470624E0,-9.3363136E-1,2.8807468E0,9.34856E-1,-4.0232434E0,9.450646E-2,7.314446E0,5.768517E0,2.6797552E0,-6.9318676E-1,1.8997055E0,1.4849578E0,-1.7405804E0,2.1437073E-2,1.9399625E-1,-1.5954272E0,1.8233134E0,-4.8055964E0,-1.9128047E0,-1.8360167E0,-1.02971084E-1,9.359534E-1,3.6479194E0,3.177999E-1,-4.8880303E-1,1.7633976E0,8.5364506E-2,-7.053251E-1,4.673392E0,-2.8044086E0,1.2959193E0,-1.6874018E0,-5.681341E0,2.7633705E0,-1.4760926E0,-1.13941304E-1,-1.8149391E0,-1.999131E0,2.1211574E0],"split_indices":[2,2,2,2,0,1,3,0,0,3,3,0,0,3,3,0,2,3,3,1,1,1,0,3,1,3,0,2,0,1,0,0,1,3,2,3,2,2,0,0,0,0,0,0,0,0,3,1,0,3,2,0,2,1,2,0,3,0,0,0,0,0,0,0,0,0,0,0,0,0,0,0,0,0,0,0,0,0,0,0,0,0,0,0,0,0,0,0,0,0,0,0,0,0,0,0,0,0,0,0,0,0,0,0,0],"split_type":[0,0,0,0,0,0,0,0,0,0,0,0,0,0,0,0,0,0,0,0,0,0,0,0,0,0,0,0,0,0,0,0,0,0,0,0,0,0,0,0,0,0,0,0,0,0,0,0,0,0,0,0,0,0,0,0,0,0,0,0,0,0,0,0,0,0,0,0,0,0,0,0,0,0,0,0,0,0,0,0,0,0,0,0,0,0,0,0,0,0,0,0,0,0,0,0,0,0,0,0,0,0,0,0,0],"sum_hessian":[3.897E3,4.57E2,3.44E3,4.07E2,5E1,4.2E1,3.398E3,3E2,1.07E2,4.1E1,9E0,4.1E1,1E0,2.388E3,1.01E3,2.2E2,8E1,7.6E1,3.1E1,2.8E1,1.3E1,6E0,3E0,3.5E1,6E0,2.364E3,2.4E1,7.8E1,9.32E2,2.16E2,4E0,9E0,7.1E1,7.2E1,4E0,2.4E1,7E0,2.1E1,7E0,1.1E1,2E0,4E0,2E0,1E0,2E0,2E0,3.3E1,4E0,2E0,4.7E2,1.894E3,1.9E1,5E0,4E1,3.8E1,9.13E2,1.9E1,1.95E2,2.1E1,3E0,1E0,4E0,5E0,3.6E1,3.5E1,3.7E1,3.5E1,1E0,3E0,2.2E1,2E0,3E0,4E0,9E0,1.2E1,5E0,2E0,5E0,6E0,1E0,1E0,1E0,1E0,2E0,3.1E1,3E0,1E0,1E0,1E0,1.08E2,3.62E2,2.9E1,1.865E3,3E0,1.6E1,4E0,1E0,3.7E1,3E0,1.4E1,2.4E1,8.78E2,3.5E1,3E0,1.6E1],"tree_param":{"num_deleted":"0","num_feature":"4","num_nodes":"105","size_leaf_vector":"1"}},{"base_weights":[1.710753E-2,3.7291074E-1,-3.5494542E-1,2.5262398E-1,2.5333755E0,-1.4174423E-1,-1.4913114E0,6.729983E-1,-4.4167224E-1,4.1379924E0,-1.7757683E-1,5.753404E-1,-6.894381E-1,-2.1043026E0,2.338904E0,1.09848835E-1,2.5552993E0,9.852444E-2,-3.0593343E0,6.258442E0,1.3848381E0,-2.455105E0,1.9999536E0,-7.71946E-1,2.1608143E0,-2.4759839E0,-2.8507665E-2,-2.3683314E0,4.0876527E0,6.7183514E0,-1.5710026E0,2.0137328E-1,-1.1686348E1,6.1739616E0,8.9678794E-1,-6.0115266E0,3.6727926E-1,1.4803433E0,-4.8301225E0,4.781277E0,9.768659E0,3.3335342E0,-2.28414E0,-4.7014194E0,2.3882527E0,-3.535439E-1,4.6241555E0,-9.486866E-1,6.5601907E0,-9.735349E0,2.5759656E0,-2.8555992E0,9.174526E0,3.2260013E0,-5.623564E-1,-6.2834754E0,-2.0005648E0,1.5061604E1,-1.9102793E0,7.8284736E0,-2.1560967E0,-6.0031414E0,7.432544E-1,2.8811088E-2,2.8731709E0,-3.9354246E0,-4.643927E-1,1.5386368E0,9.909729E0,5.6375134E-1,-1.9669509E0,-2.2814426E0,1.2763224E0,5.828835E0,3.8758982E-2,-3.6634272E-1,2.2456522E0,-1.5951031E0,8.130535E-1,2.0959518E0,-4.8153248E-1,-5.4096967E-1,3.3764353E0,2.2741506E0,2.9158223E-1,-1.3956925E0,3.2096307E0,-1.8515574E0,1.5529262E-1,1.8076042E0,-8.149636E-2,1.1439781E0,-6.498523E-1,2.712547E0,-4.8056328E-1,6.917236E-3,-6.916476E-1,2.4439814E0,-9.1966784E-1,-4.92491E0,-1.5533762E0,9.67704E-1,-8.379173E-1,-2.2694165E-1,-1.2633587E0,2.8546602E-1,5.1478834E0,5.977577E-1,4.8710394E0,-6.1837062E-2,-1.2853289E0,8.390972E-1,-2.2159572E0,2.6508242E-1,-8.2384115E-1,5.3293724E0,1.0429041E0,3.1195652E-1,-1.1664994E0,1.7497013E0,4.15677E0,-4.4155017E-1,-3.0499473E0,1.6740674E0,-1.0916575E0],"categories":[],"categories_nodes":[],"categories_segments":[],"categories_sizes":[],"default_left":[0,0,0,0,0,0,0,0,0,0,0,0,0,0,0,0,0,0,0,0,0,0,0,0,0,0,0,0,0,0,0,0,0,0,0,0,0,0,0,0,0,0,0,0,0,0,0,0,0,0,0,0,0,0,0,0,0,0,0,0,0,0,0,0,0,0,0,0,0,0,0,0,0,0,0,0,0,0,0,0,0,0,0,0,0,0,0,0,0,0,0,0,0,0,0,0,0,0,0,0,0,0,0,0,0,0,0,0,0,0,0,0,0,0,0,0,0,0,0,0,0,0,0,0,0],"id":10,"left_children":[1,3,5,7,9,11,13,15,17,19,21,23,25,27,29,31,33,35,37,39,41,43,45,47,49,51,53,55,57,59,61,63,65,67,69,71,73,75,77,79,81,83,85,87,89,91,93,95,97,99,101,103,105,107,109,111,113,115,117,119,-1,121,123,-1,-1,-1,-1,-1,-1,-1,-1,-1,-1,-1,-1,-1,-1,-1,-1,-1,-1,-1,-1,-1,-1,-1,-1,-1,-1,-1,-1,-1,-1,-1,-1,-1,-1,-1,-1,-1,-1,-1,-1,-1,-1,-1,-1,-1,-1,-1,-1,-1,-1,-1,-1,-1,-1,-1,-1,-1,-1,-1,-1,-1,-1],"loss_changes":[5.161404E2,5.172915E2,4.61564E2,5.516289E2,4.57489E2,6.3114166E2,7.1163617E2,1.2473591E3,1.00852075E3,3.766361E2,2.032856E2,1.4883849E3,1.0756223E3,4.347433E2,7.297301E2,9.8158716E2,1.6208953E3,9.743345E2,9.8788464E2,1.4514465E2,2.2210596E2,2.2882227E2,1.3133194E2,4.947727E2,1.6054652E3,1.1141863E3,1.1589329E3,3.473944E2,7.52803E2,3.649959E2,2.4037537E2,8.889249E2,8.1301636E1,2.2166816E3,1.3815325E3,4.4126727E2,2.5752852E3,5.769411E2,3.3748267E2,4.055504E2,1.922677E2,1.9322446E2,3.8797675E2,1.1063516E2,6.935715E1,9.889469E1,2.895294E2,4.8656766E2,1.6240768E2,2.4992822E2,1.0903918E3,6.769054E2,5.0896075E2,1.4762068E3,7.588718E2,2.3100006E2,4.9700922E2,6.3502625E1,5.072744E1,1.4778748E2,0E0,1.3595993E2,3.5944403E2,0E0,0E0,0E0,0E0,0E0,0E0,0E0,0E0,0E0,0E0,0E0,0E0,0E0,0E0,0E0,0E0,0E0,0E0,0E0,0E0,0E0,0E0,0E0,0E0,0E0,0E0,0E0,0E0,0E0,0E0,0E0,0E0,0E0,0E0,0E0,0E0,0E0,0E0,0E0,0E0,0E0,0E0,0E0,0E0,0E0,0E0,0E0,0E0,0E0,0E0,0E0,0E0,0E0,0E0,0E0,0E0,0E0,0E0,0E0,0E0,0E0,0E0],"parents":[2147483647,0,0,1,1,2,2,3,3,4,4,5,5,6,6,7,7,8,8,9,9,10,10,11,11,12,12,13,13,14,14,15,15,16,16,17,17,18,18,19,19,20,20,21,21,22,22,23,23,24,24,25,25,26,26,27,27,28,28,29,29,30,30,31,31,32,32,33,33,34,34,35,35,36,36,37,37,38,38,39,39,40,40,41,41,42,42,43,43,44,44,45,45,46,46,47,47,48,48,49,49,50,50,51,51,52,52,53,53,54,54,55,55,56,56,57,57,58,58,59,59,61,61,62,62],"right_children":[2,4,6,8,10,12,14,16,18,20,22,24,26,28,30,32,34,36,38,40,42,44,46,48,50,52,54,56,58,60,62,64,66,68,70,72,74,76,78,80,82,84,86,88,90,92,94,96,98,100,102,104,106,108,110,112,114,116,118,120,-1,122,124,-1,-1,-1,-1,-1,-1,-1,-1,-1,-1,-1,-1,-1,-1,-1,-1,-1,-1,-1,-1,-1,-1,-1,-1,-1,-1,-1,-1,-1,-1,-1,-1,-1,-1,-1,-1,-1,-1,-1,-1,-1,-1,-1,-1,-1,-1,-1,-1,-1,-1,-1,-1,-1,-1,-1,-1,-1,-1,-1,-1,-1,-1],"split_conditions":[1.966536E1,2.7767166E1,2.4938002E1,1.9383833E1,1.9079048E2,2.003383E2,2.894217E1,2.5E0,1.9931633E2,2.8840086E1,2.2874E2,1.697055E2,2.484E1,3.1900002E1,2.4119999E1,2.3000002E0,4.4E0,1.9692167E1,1.1923557E1,1.7163355E1,9E-1,2.9194246E1,1.5484185E1,2.3908836E1,8.194251E0,3.5825577E2,2.667889E1,2.0275383E1,3.73E1,1.1299999E1,2.667889E1,1.9177584E1,1.55843E1,4.3000007E0,1.8847641E1,1.697055E2,1.989342E1,1.0829959E1,1.9469975E1,1.5629972E1,2.788592E1,2.9194246E1,7E0,2.0817014E2,4E-1,1E-1,2.9522577E1,1.6883001E1,2.4821335E1,6.513001E0,4.0813583E1,2.1758419E1,9E-1,2.6564486E1,1.9103834E1,1.9852295E1,2.2461807E1,2.6469252E1,3.695888E1,7E-1,-2.1560967E0,1E-1,2.9354904E1,2.8811088E-2,2.8731709E0,-3.9354246E0,-4.643927E-1,1.5386368E0,9.909729E0,5.6375134E-1,-1.9669509E0,-2.2814426E0,1.2763224E0,5.828835E0,3.8758982E-2,-3.6634272E-1,2.2456522E0,-1.5951031E0,8.130535E-1,2.0959518E0,-4.8153248E-1,-5.4096967E-1,3.3764353E0,2.2741506E0,2.9158223E-1,-1.3956925E0,3.2096307E0,-1.8515574E0,1.5529262E-1,1.8076042E0,-8.149636E-2,1.1439781E0,-6.498523E-1,2.712547E0,-4.8056328E-1,6.917236E-3,-6.916476E-1,2.4439814E0,-9.1966784E-1,-4.92491E0,-1.5533762E0,9.67704E-1,-8.379173E-1,-2.2694165E-1,-1.2633587E0,2.8546602E-1,5.1478834E0,5.977577E-1,4.8710394E0,-6.1837062E-2,-1.2853289E0,8.390972E-1,-2.2159572E0,2.6508242E-1,-8.2384115E-1,5.3293724E0,1.0429041E0,3.1195652E-1,-1.1664994E0,1.7497013E0,4.15677E0,-4.4155017E-1,-3.0499473E0,1.6740674E0,-1.0916575E0],"split_indices":[2,0,0,0,3,3,0,1,3,0,3,3,2,1,2,1,1,0,2,2,1,0,2,0,0,3,2,2,1,1,2,0,2,1,2,3,0,2,2,2,0,0,1,3,1,1,0,0,0,0,2,2,1,2,0,2,2,0,3,1,0,1,2,0,0,0,0,0,0,0,0,0,0,0,0,0,0,0,0,0,0,0,0,0,0,0,0,0,0,0,0,0,0,0,0,0,0,0,0,0,0,0,0,0,0,0,0,0,0,0,0,0,0,0,0,0,0,0,0,0,0,0,0,0,0],"split_type":[0,0,0,0,0,0,0,0,0,0,0,0,0,0,0,0,0,0,0,0,0,0,0,0,0,0,0,0,0,0,0,0,0,0,0,0,0,0,0,0,0,0,0,0,0,0,0,0,0,0,0,0,0,0,0,0,0,0,0,0,0,0,0,0,0,0,0,0,0,0,0,0,0,0,0,0,0,0,0,0,0,0,0,0,0,0,0,0,0,0,0,0,0,0,0,0,0,0,0,0,0,0,0,0,0,0,0,0,0,0,0,0,0,0,0,0,0,0,0,0,0,0,0,0,0],"sum_hessian":[3.897E3,1.992E3,1.905E3,1.888E3,1.04E2,1.605E3,3E2,1.176E3,7.12E2,6.5E1,3.9E1,6.95E2,9.1E2,2.59E2,4.1E1,9.06E2,2.7E2,5.91E2,1.21E2,3.6E1,2.9E1,1.9E1,2E1,3.76E2,3.19E2,2.45E2,6.65E2,2.49E2,1E1,1.9E1,2.2E1,9E2,6E0,8.4E1,1.86E2,2.4E1,5.67E2,3.4E1,8.7E1,2.7E1,9E0,1.9E1,1E1,1.3E1,6E0,1.1E1,9E0,3.68E2,8E0,1E1,3.09E2,2.38E2,7E0,9.3E1,5.72E2,2E1,2.29E2,3E0,7E0,1.8E1,1E0,7E0,1.5E1,8.91E2,9E0,5E0,1E0,8.2E1,2E0,1.65E2,2.1E1,2.1E1,3E0,6E0,5.61E2,2.4E1,1E1,8.2E1,5E0,2E1,7E0,1E0,8E0,6E0,1.3E1,9E0,1E0,1E1,3E0,2E0,4E0,3E0,8E0,5E0,4E0,2.15E2,1.53E2,7E0,1E0,3E0,7E0,2.76E2,3.3E1,9.4E1,1.44E2,4E0,3E0,8.6E1,7E0,5.23E2,4.9E1,2E0,1.8E1,4.7E1,1.82E2,2E0,1E0,3E0,4E0,1.5E1,3E0,4E0,3E0,7E0,8E0],"tree_param":{"num_deleted":"0","num_feature":"4","num_nodes":"125","size_leaf_vector":"1"}},{"base_weights":[2.0459363E-2,1.6492728E0,-4.607265E-2,8.705756E-1,4.5665164E0,-9.1455805E-1,9.7968675E-2,1.5642561E0,-5.0659957E0,3.0058117E0,5.595417E0,-6.3562304E-1,-4.078338E0,3.0012996E0,4.3661162E-2,1.0532203E0,3.6256092E0,-3.0583625E0,-3.2215958E0,-1.3846409E0,9.706878E0,-3.7054594E0,-3.6992934E-1,-2.2652726E0,-9.834927E0,5.270536E0,-2.956833E-1,-1.9011186E-1,6.9263667E-1,2.02429E0,-4.9728885E0,-6.535301E-1,-7.1034365E0,2.0176108E0,-4.042425E0,2.2681987E0,1.6767523E1,1.5682781E0,-4.8757396E0,1.7545621E0,-9.8449814E-1,-3.5581586E0,8.320912E0,-3.39988E0,-2.5619373E0,3.3248007E0,4.8839965E0,3.469245E0,-5.4027963E0,-1.7150983E-2,-2.4950833E0,3.7079942E0,-3.0559385E-1,-9.8850034E-2,1.4142536E0,-2.3089414E0,1.3323246E0,-1.9236735E0,3.2555354E-1,-1.4992332E-1,-2.7414258E0,-1.6293188E0,1.0882734E0,-2.9066178E-1,-2.7536771E0,-1.4929156E0,1.2915082E0,6.65803E0,-1.5543034E0,-2.3180344E0,-1.4179435E-2,7.305591E-1,-2.8624382E0,-2.0310378E0,-8.502721E-2,-1.7653013E0,5.745752E-1,2.8989887E-1,3.1350992E0,-1.1385598E0,-1.4311981E-2,-1.1271204E-1,2.3535333E0,4.752383E-1,2.477186E0,-2.010499E0,1.1378813E0,-1.129988E0,2.2045285E-2,9.7571266E-1,-1.0702889E0,2.7572103E0,4.5802292E-1,2.8078184E-1,-6.500043E-1],"categories":[],"categories_nodes":[],"categories_segments":[],"categories_sizes":[],"default_left":[0,0,0,0,0,0,0,0,0,0,0,0,0,0,0,0,0,0,0,0,0,0,0,0,0,0,0,0,0,0,0,0,0,0,0,0,0,0,0,0,0,0,0,0,0,0,0,0,0,0,0,0,0,0,0,0,0,0,0,0,0,0,0,0,0,0,0,0,0,0,0,0,0,0,0,0,0,0,0,0,0,0,0,0,0,0,0,0,0,0,0,0,0,0,0],"id":11,"left_children":[1,3,5,7,9,11,13,15,17,19,-1,21,23,25,27,29,-1,31,-1,33,35,37,39,41,43,45,47,49,51,53,55,57,59,61,63,65,67,-1,69,71,73,75,77,-1,79,81,-1,83,85,87,89,91,93,-1,-1,-1,-1,-1,-1,-1,-1,-1,-1,-1,-1,-1,-1,-1,-1,-1,-1,-1,-1,-1,-1,-1,-1,-1,-1,-1,-1,-1,-1,-1,-1,-1,-1,-1,-1,-1,-1,-1,-1,-1,-1],"loss_changes":[4.224954E2,3.4358688E2,4.687059E2,5.1033078E2,6.473719E2,4.6777444E2,5.0662897E2,5.787042E2,1.1520929E2,8.960619E2,0E0,3.9910657E2,4.2651532E2,4.4297473E2,4.789378E2,6.303543E2,0E0,1.0236265E2,0E0,1.7996259E2,5.9223035E2,4.3320117E2,5.931851E2,4.9495602E2,7.9915405E1,6.956241E2,4.9944144E2,9.2527E2,2.5175115E3,5.840453E2,4.1877658E2,8.706024E1,4.91781E1,1.2763068E2,1.6476707E2,1.2471529E2,8.295288E2,0E0,4.814511E2,8.0745874E2,1.4258473E3,4.059659E2,5.254547E1,0E0,9.121059E0,5.2149805E2,0E0,1.2230969E2,1.5680338E2,7.343197E2,1.0102387E3,2.473473E3,1.4553964E3,0E0,0E0,0E0,0E0,0E0,0E0,0E0,0E0,0E0,0E0,0E0,0E0,0E0,0E0,0E0,0E0,0E0,0E0,0E0,0E0,0E0,0E0,0E0,0E0,0E0,0E0,0E0,0E0,0E0,0E0,0E0,0E0,0E0,0E0,0E0,0E0,0E0,0E0,0E0,0E0,0E0,0E0],"parents":[2147483647,0,0,1,1,2,2,3,3,4,4,5,5,6,6,7,7,8,8,9,9,11,11,12,12,13,13,14,14,15,15,17,17,19,19,20,20,21,21,22,22,23,23,24,24,25,25,26,26,27,27,28,28,29,29,30,30,31,31,32,32,33,33,34,34,35,35,36,36,38,38,39,39,40,40,41,41,42,42,44,44,45,45,47,47,48,48,49,49,50,50,51,51,52,52],"right_children":[2,4,6,8,10,12,14,16,18,20,-1,22,24,26,28,30,-1,32,-1,34,36,38,40,42,44,46,48,50,52,54,56,58,60,62,64,66,68,-1,70,72,74,76,78,-1,80,82,-1,84,86,88,90,92,94,-1,-1,-1,-1,-1,-1,-1,-1,-1,-1,-1,-1,-1,-1,-1,-1,-1,-1,-1,-1,-1,-1,-1,-1,-1,-1,-1,-1,-1,-1,-1,-1,-1,-1,-1,-1,-1,-1,-1,-1,-1,-1],"split_conditions":[9.504272E0,9.178235E0,2.7191368E1,3.4642596E2,8.000001E0,2.3007715E1,3.0903044E1,3.388273E2,8.891343E0,2.6338663E2,5.595417E0,3.0546665E0,2.1068459E1,1.8775301E1,3.1999998E0,3.1675937E2,3.6256092E0,3.5719125E2,-3.2215958E0,9.339208E0,1E-1,4.8925018E-1,7.242165E0,2.0140705E1,2.7219902E1,4.8E0,1.56413355E1,1.9E0,1.2487999E1,7.971807E1,5E-1,7.24486E0,1.4280918E1,1.3078834E1,2.0578836E1,3.8150837E0,1.5000001E0,1.5682781E0,1.9602652E1,3.0703587E1,9.121333E0,2.571807E1,4.4650836E0,-3.39988E0,1.6540085E1,1.8542166E1,4.8839965E0,1.5067166E1,1.6100002E1,3.8061695E1,7.566186E1,5.6E0,1.9357384E2,-9.8850034E-2,1.4142536E0,-2.3089414E0,1.3323246E0,-1.9236735E0,3.2555354E-1,-1.4992332E-1,-2.7414258E0,-1.6293188E0,1.0882734E0,-2.9066178E-1,-2.7536771E0,-1.4929156E0,1.2915082E0,6.65803E0,-1.5543034E0,-2.3180344E0,-1.4179435E-2,7.305591E-1,-2.8624382E0,-2.0310378E0,-8.502721E-2,-1.7653013E0,5.745752E-1,2.8989887E-1,3.1350992E0,-1.1385598E0,-1.4311981E-2,-1.1271204E-1,2.3535333E0,4.752383E-1,2.477186E0,-2.010499E0,1.1378813E0,-1.129988E0,2.2045285E-2,9.7571266E-1,-1.0702889E0,2.7572103E0,4.5802292E-1,2.8078184E-1,-6.500043E-1],"split_indices":[2,2,3,3,1,3,3,3,2,3,0,0,2,2,1,3,0,3,0,2,1,0,0,2,2,1,0,1,0,3,1,2,0,0,0,0,1,0,2,2,0,3,0,0,0,0,0,0,1,3,3,1,3,0,0,0,0,0,0,0,0,0,0,0,0,0,0,0,0,0,0,0,0,0,0,0,0,0,0,0,0,0,0,0,0,0,0,0,0,0,0,0,0,0,0],"split_type":[0,0,0,0,0,0,0,0,0,0,0,0,0,0,0,0,0,0,0,0,0,0,0,0,0,0,0,0,0,0,0,0,0,0,0,0,0,0,0,0,0,0,0,0,0,0,0,0,0,0,0,0,0,0,0,0,0,0,0,0,0,0,0,0,0,0,0,0,0,0,0,0,0,0,0,0,0,0,0,0,0,0,0,0,0,0,0,0,0,0,0,0,0,0,0],"sum_hessian":[3.897E3,1.52E2,3.745E3,1.21E2,3.1E1,5.32E2,3.213E3,1.09E2,1.2E1,2.9E1,2E0,4.9E2,4.2E1,5.8E1,3.155E3,1.05E2,4E0,1E1,2E0,1.8E1,1.1E1,3.8E1,4.52E2,3.3E1,9E0,3.4E1,2.4E1,2.32E3,8.35E2,9.1E1,1.4E1,7E0,3E0,8E0,1E1,6E0,5E0,4E0,3.4E1,1.01E2,3.51E2,3E1,3E0,7E0,2E0,3E1,4E0,1.4E1,1E1,2.159E3,1.61E2,2.07E2,6.28E2,4.9E1,4.2E1,1.1E1,3E0,1E0,6E0,1E0,2E0,1E0,7E0,7E0,3E0,1E0,5E0,4E0,1E0,2.1E1,1.3E1,9.6E1,5E0,3.7E1,3.14E2,2.1E1,9E0,1E0,2E0,1E0,1E0,1.7E1,1.3E1,1.1E1,3E0,9E0,1E0,5E1,2.109E3,2.5E1,1.36E2,5.8E1,1.49E2,3.77E2,2.51E2],"tree_param":{"num_deleted":"0","num_feature":"4","num_nodes":"95","size_leaf_vector":"1"}},{"base_weights":[1.6036224E-2,4.9809195E-2,-2.813166E0,7.986363E-3,5.762821E0,-7.1035714E0,-1.424065E0,1.5362725E-1,-8.0736524E-1,-3.0515027E0,8.846239E0,-3.3751621E0,-3.1266553E0,-5.204949E0,2.303115E-1,1.0236518E-1,3.718573E0,-2.3212112E-1,-3.23581E0,-1.1852363E0,-2.3576482E-1,1.4425269E1,5.0263476E0,-1.7918569E0,-7.936039E-1,2.4985237E0,-2.1583338E0,1.7936891E0,-3.5114994E0,-2.0817082E0,1.6331255E-1,4.8788877E0,-4.8300033E0,-4.6461597E-1,6.393958E0,-1.0035695E1,-1.6310475E0,3.160515E-2,-1.3769932E-1,3.1075296E0,2.0594406E1,1.1600905E1,8.482594E-2,-4.0203075E0,2.6976345E0,-2.8335857E-1,1.4076943E0,4.5130024E0,-3.512705E0,-1.3519843E0,5.1814556E-1,-4.493918E-1,-2.297655E0,-5.5355985E-2,1.6393544E-1,8.3255064E-1,2.9194832E0,-9.733009E-3,-2.1662018E0,-5.7839107E-2,-2.236983E0,-1.2702942E-1,2.8593798E0,-4.158462E0,5.517519E-1,-1.4958675E-1,-2.200628E0,1.7368928E-1,1.603984E0,6.790233E0,1.8653401E0,9.3968205E-2,5.149932E0,-2.6303668E0,6.8622047E-1,-1.5720232E0,-2.371153E-1,8.1167795E-2,1.1327677E0,2.1640034E0,-3.7506393E-1,-1.2599774E-1,-1.1874475E0],"categories":[],"categories_nodes":[],"categories_segments":[],"categories_sizes":[],"default_left":[0,0,0,0,0,0,0,0,0,0,0,0,0,0,0,0,0,0,0,0,0,0,0,0,0,0,0,0,0,0,0,0,0,0,0,0,0,0,0,0,0,0,0,0,0,0,0,0,0,0,0,0,0,0,0,0,0,0,0,0,0,0,0,0,0,0,0,0,0,0,0,0,0,0,0,0,0,0,0,0,0,0,0],"id":12,"left_children":[1,3,5,7,9,11,13,15,17,19,21,-1,23,25,27,29,31,33,35,-1,37,39,41,-1,43,45,-1,47,49,51,53,55,57,59,61,63,65,-1,-1,67,69,71,73,75,77,-1,-1,79,81,-1,-1,-1,-1,-1,-1,-1,-1,-1,-1,-1,-1,-1,-1,-1,-1,-1,-1,-1,-1,-1,-1,-1,-1,-1,-1,-1,-1,-1,-1,-1,-1,-1,-1],"loss_changes":[3.725962E2,9.20568E2,2.6403516E2,4.544559E2,7.8798505E2,1.4623706E2,2.2637897E2,5.929972E2,8.094791E2,1.9325752E1,3.7503076E2,0E0,4.174224E1,1.8656189E2,1.5839499E2,4.265695E2,4.7984076E2,7.270194E2,1.1948856E3,0E0,2.7680016E-1,4.9456775E2,4.5385245E2,0E0,6.717128E1,2.7092031E1,0E0,2.9001807E2,4.948809E1,2.717624E2,4.1536438E2,3.915525E2,6.8582E1,8.6331555E2,3.4624768E2,9.795532E2,5.841825E2,0E0,0E0,1.9551178E1,5.885498E0,3.7155457E2,1.9554465E2,7.6776123E0,6.8294353E0,0E0,0E0,2.1133264E2,7.981224E0,0E0,0E0,0E0,0E0,0E0,0E0,0E0,0E0,0E0,0E0,0E0,0E0,0E0,0E0,0E0,0E0,0E0,0E0,0E0,0E0,0E0,0E0,0E0,0E0,0E0,0E0,0E0,0E0,0E0,0E0,0E0,0E0,0E0,0E0],"parents":[2147483647,0,0,1,1,2,2,3,3,4,4,5,5,6,6,7,7,8,8,9,9,10,10,12,12,13,13,14,14,15,15,16,16,17,17,18,18,20,20,21,21,22,22,24,24,25,25,27,27,28,28,29,29,30,30,31,31,32,32,33,33,34,34,35,35,36,36,39,39,40,40,41,41,42,42,43,43,44,44,47,47,48,48],"right_children":[2,4,6,8,10,12,14,16,18,20,22,-1,24,26,28,30,32,34,36,-1,38,40,42,-1,44,46,-1,48,50,52,54,56,58,60,62,64,66,-1,-1,68,70,72,74,76,78,-1,-1,80,82,-1,-1,-1,-1,-1,-1,-1,-1,-1,-1,-1,-1,-1,-1,-1,-1,-1,-1,-1,-1,-1,-1,-1,-1,-1,-1,-1,-1,-1,-1,-1,-1,-1,-1],"split_conditions":[4.69E1,3.92E1,1.5067166E1,3.461432E2,3.695888E1,5.84E1,1.8359999E1,3.4486978E2,4.1000004E0,2.4708834E1,1.1237999E1,-3.3751621E0,2.397989E1,1.1874544E1,3.8768173E1,1.4580001E0,1.6540085E1,3.5E0,5.8E0,-1.1852363E0,2.5555922E1,7.3421664E0,1.7078111E2,-1.7918569E0,3.37665E2,2.156925E1,-2.1583338E0,2.156925E1,2.4433836E1,3.419809E2,1.8172144E2,3.4587314E2,3.4587314E2,2.7000003E0,3.5255936E2,1.5354671E1,3.1E1,3.160515E-2,-1.3769932E-1,3.1838338E0,3.924165E1,1.8E1,1.3292167E1,6.2234178E0,7.788332E-1,-2.8335857E-1,1.4076943E0,3.514355E2,2.006334E1,-1.3519843E0,5.1814556E-1,-4.493918E-1,-2.297655E0,-5.5355985E-2,1.6393544E-1,8.3255064E-1,2.9194832E0,-9.733009E-3,-2.1662018E0,-5.7839107E-2,-2.236983E0,-1.2702942E-1,2.8593798E0,-4.158462E0,5.517519E-1,-1.4958675E-1,-2.200628E0,1.7368928E-1,1.603984E0,6.790233E0,1.8653401E0,9.3968205E-2,5.149932E0,-2.6303668E0,6.8622047E-1,-1.5720232E0,-2.371153E-1,8.1167795E-2,1.1327677E0,2.1640034E0,-3.7506393E-1,-1.2599774E-1,-1.1874475E0],"split_indices":[1,1,0,3,3,1,2,3,1,0,0,0,2,2,2,0,0,1,1,0,0,0,3,0,3,0,0,0,0,3,3,3,3,1,3,0,1,0,0,0,2,2,0,0,0,0,0,3,2,0,0,0,0,0,0,0,0,0,0,0,0,0,0,0,0,0,0,0,0,0,0,0,0,0,0,0,0,0,0,0,0,0,0],"split_type":[0,0,0,0,0,0,0,0,0,0,0,0,0,0,0,0,0,0,0,0,0,0,0,0,0,0,0,0,0,0,0,0,0,0,0,0,0,0,0,0,0,0,0,0,0,0,0,0,0,0,0,0,0,0,0,0,0,0,0,0,0,0,0,0,0,0,0,0,0,0,0,0,0,0,0,0,0,0,0,0,0,0,0],"sum_hessian":[3.897E3,3.852E3,4.5E1,3.825E3,2.7E1,1E1,3.5E1,3.246E3,5.79E2,7E0,2E1,4E0,6E0,1E1,2.5E1,3.201E3,4.5E1,4.69E2,1.1E2,5E0,2E0,7E0,1.3E1,2E0,4E0,2E0,8E0,1.8E1,7E0,8.6E1,3.115E3,4E1,5E0,4.54E2,1.5E1,2E1,9E1,1E0,1E0,3E0,4E0,5E0,8E0,2E0,2E0,1E0,1E0,1.2E1,6E0,6E0,1E0,7.9E1,7E0,1.633E3,1.482E3,2.9E1,1.1E1,2E0,3E0,4.38E2,1.6E1,5E0,1E1,1.5E1,5E0,7.6E1,1.4E1,2E0,1E0,3E0,1E0,2E0,3E0,1E0,7E0,1E0,1E0,1E0,1E0,8E0,4E0,1E0,5E0],"tree_param":{"num_deleted":"0","num_feature":"4","num_nodes":"83","size_leaf_vector":"1"}},{"base_weights":[1.0892438E-2,-5.18097E-1,1.4254327E-1,-3.7876454E-1,-7.5709343E0,2.216363E0,-2.2379339E-2,-6.288025E-1,3.199353E0,-8.30672E0,4.095091E-1,-2.8051698E-1,7.8119187E0,-1.5681721E0,1.1045703E-1,-4.7626638E-1,-5.4051085E0,-2.6506093E0,5.5479665E0,-5.6083407E0,-4.095175E0,-2.9543614E0,1.4865611E0,1.014975E1,-7.4638295E0,-1.7120032E-1,-5.4127636E0,2.6270535E0,-2.6964156E-2,-5.617665E-1,1.4391568E1,-4.9542376E-1,-9.455227E0,1.5261068E0,-6.4959993E0,1.3930908E1,2.6553075E0,-7.331768E0,-7.594013E-1,1.3896538E0,-6.8281884E0,-2.3248858E0,3.5804353E0,2.0981335E1,6.553427E0,2.225928E0,-9.941979E0,-4.3646097E-1,4.395613E0,5.597014E-1,-9.042405E0,1.099261E0,6.767804E0,-2.9218354E0,4.5799922E-2,-1.1451813E-1,-1.441434E0,1.0548512E0,5.0533934E0,2.4408875E0,-9.9528456E-1,-3.358926E0,-1.4985277E-1,1.687621E0,-2.3336773E-1,-2.7997928E0,-3.9785874E-1,2.6726909E0,6.30154E0,-1.5305176E0,1.5008277E0,-4.4526103E-1,-2.7100766E0,-7.925394E-1,2.245991E-1,1.4707885E0,-2.7968926E0,-4.6205664E0,-1.33227E0,2.1453686E0,-2.474839E0,5.073585E0,7.1698827E-1,3.6469203E-1,7.746436E0,-4.6530393E-1,3.4403377E0,-3.7409244E0,1.5420251E0,-3.032844E-1,1.5145332E0,2.9060593E0,-1.1305073E0,-3.1940367E0,2.176966E0,-3.452753E-1,2.6634529E0,8.548071E0,9.8128104E-1,1.0680709E-1,-1.8017862E0,2.0716083E0,3.0619526E-4],"categories":[],"categories_nodes":[],"categories_segments":[],"categories_sizes":[],"default_left":[0,0,0,0,0,0,0,0,0,0,0,0,0,0,0,0,0,0,0,0,0,0,0,0,0,0,0,0,0,0,0,0,0,0,0,0,0,0,0,0,0,0,0,0,0,0,0,0,0,0,0,0,0,0,0,0,0,0,0,0,0,0,0,0,0,0,0,0,0,0,0,0,0,0,0,0,0,0,0,0,0,0,0,0,0,0,0,0,0,0,0,0,0,0,0,0,0,0,0,0,0,0,0],"id":13,"left_children":[1,3,5,7,9,11,13,15,17,19,-1,21,23,25,27,29,31,33,35,37,-1,39,41,43,45,47,49,51,53,55,57,59,61,63,65,67,69,71,73,75,77,79,81,83,85,-1,87,89,-1,91,93,95,97,99,101,-1,-1,-1,-1,-1,-1,-1,-1,-1,-1,-1,-1,-1,-1,-1,-1,-1,-1,-1,-1,-1,-1,-1,-1,-1,-1,-1,-1,-1,-1,-1,-1,-1,-1,-1,-1,-1,-1,-1,-1,-1,-1,-1,-1,-1,-1,-1,-1],"loss_changes":[2.7153793E2,7.606819E2,1.0678354E3,6.8464136E2,1.09963196E2,3.2156204E3,5.9421466E2,5.1761694E2,7.0167053E2,1.2531958E2,0E0,7.603746E2,2.611317E3,1.2289833E3,9.217176E2,8.890272E2,4.3278143E2,2.5083011E2,8.359729E2,8.6356964E1,0E0,1.0864785E3,7.8245105E2,2.2776401E3,4.4260474E2,6.7090704E2,1.3274133E3,8.655772E2,5.3263837E2,5.252636E2,4.748407E1,2.9495697E2,1.8153076E2,7.993416E1,1.049422E2,1.326029E2,5.3538184E2,6.620441E1,1.3332924E1,1.2123358E3,6.2751025E2,2.0239628E3,9.594433E2,1.4036357E3,1.9295391E3,0E0,4.0721112E2,5.3132184E2,0E0,9.845731E2,1.0709504E3,1.7956207E3,2.7177678E3,6.289153E2,7.5777185E2,0E0,0E0,0E0,0E0,0E0,0E0,0E0,0E0,0E0,0E0,0E0,0E0,0E0,0E0,0E0,0E0,0E0,0E0,0E0,0E0,0E0,0E0,0E0,0E0,0E0,0E0,0E0,0E0,0E0,0E0,0E0,0E0,0E0,0E0,0E0,0E0,0E0,0E0,0E0,0E0,0E0,0E0,0E0,0E0,0E0,0E0,0E0,0E0],"parents":[2147483647,0,0,1,1,2,2,3,3,4,4,5,5,6,6,7,7,8,8,9,9,11,11,12,12,13,13,14,14,15,15,16,16,17,17,18,18,19,19,21,21,22,22,23,23,24,24,25,25,26,26,27,27,28,28,29,29,30,30,31,31,32,32,33,33,34,34,35,35,36,36,37,37,38,38,39,39,40,40,41,41,42,42,43,43,44,44,46,46,47,47,49,49,50,50,51,51,52,52,53,53,54,54],"right_children":[2,4,6,8,10,12,14,16,18,20,-1,22,24,26,28,30,32,34,36,38,-1,40,42,44,46,48,50,52,54,56,58,60,62,64,66,68,70,72,74,76,78,80,82,84,86,-1,88,90,-1,92,94,96,98,100,102,-1,-1,-1,-1,-1,-1,-1,-1,-1,-1,-1,-1,-1,-1,-1,-1,-1,-1,-1,-1,-1,-1,-1,-1,-1,-1,-1,-1,-1,-1,-1,-1,-1,-1,-1,-1,-1,-1,-1,-1,-1,-1,-1,-1,-1,-1,-1,-1],"split_conditions":[6.2234178E0,3.5825577E2,7.838E0,1.01E1,5.815083E0,1.2000002E0,9.956752E0,5.6E0,3.0895587E2,5.502584E0,4.095091E-1,2.8654745E2,3.5009482E2,2.6980793E1,1.1237999E1,5.3E0,3.716334E0,6.1154146E0,3.3362155E2,5.0005E0,-4.095175E0,1.680857E1,1.8692286E1,6.7171674E0,6.308834E0,3.5719125E2,8.652584E0,3.8E0,1.1771335E1,6.0067496E0,4.8925018E-1,1.1528612E1,3.5188794E2,1.6520823E1,2.09E1,2.196295E1,1.6609162E0,1.5629972E1,1.0829959E1,2.2460304E2,1.8391735E1,3.301621E2,1.9803272E1,1.7128138E1,1.867485E2,2.225928E0,7.510917E0,1.11E1,4.395613E0,3.3147333E2,3.92E1,3.4642596E2,4.6E0,1.15255E1,1.19005E1,-1.1451813E-1,-1.441434E0,1.0548512E0,5.0533934E0,2.4408875E0,-9.9528456E-1,-3.358926E0,-1.4985277E-1,1.687621E0,-2.3336773E-1,-2.7997928E0,-3.9785874E-1,2.6726909E0,6.30154E0,-1.5305176E0,1.5008277E0,-4.4526103E-1,-2.7100766E0,-7.925394E-1,2.245991E-1,1.4707885E0,-2.7968926E0,-4.6205664E0,-1.33227E0,2.1453686E0,-2.474839E0,5.073585E0,7.1698827E-1,3.6469203E-1,7.746436E0,-4.6530393E-1,3.4403377E0,-3.7409244E0,1.5420251E0,-3.032844E-1,1.5145332E0,2.9060593E0,-1.1305073E0,-3.1940367E0,2.176966E0,-3.452753E-1,2.6634529E0,8.548071E0,9.8128104E-1,1.0680709E-1,-1.8017862E0,2.0716083E0,3.0619526E-4],"split_indices":[0,3,0,1,0,1,0,1,3,0,0,3,3,2,0,1,0,3,3,0,0,2,2,0,0,3,0,1,0,0,0,3,3,2,1,2,0,2,2,3,2,3,2,3,3,0,0,1,0,3,1,3,1,0,0,0,0,0,0,0,0,0,0,0,0,0,0,0,0,0,0,0,0,0,0,0,0,0,0,0,0,0,0,0,0,0,0,0,0,0,0,0,0,0,0,0,0,0,0,0,0,0,0],"split_type":[0,0,0,0,0,0,0,0,0,0,0,0,0,0,0,0,0,0,0,0,0,0,0,0,0,0,0,0,0,0,0,0,0,0,0,0,0,0,0,0,0,0,0,0,0,0,0,0,0,0,0,0,0,0,0,0,0,0,0,0,0,0,0,0,0,0,0,0,0,0,0,0,0,0,0,0,0,0,0,0,0,0,0,0,0,0,0,0,0,0,0,0,0,0,0,0,0,0,0,0,0,0,0],"sum_hessian":[3.897E3,7.76E2,3.121E3,7.62E2,1.4E1,2.29E2,2.892E3,7.13E2,4.9E1,1.3E1,1E0,1.59E2,7E1,2.28E2,2.664E3,6.92E2,2.1E1,1.4E1,3.5E1,1E1,3E0,6.3E1,9.6E1,6.1E1,9E0,1.68E2,6E1,1.37E2,2.527E3,6.89E2,3E0,1E1,1.1E1,7E0,7E0,8E0,2.7E1,7E0,3E0,3E1,3.3E1,3.4E1,6.2E1,1.4E1,4.7E1,1E0,8E0,1.66E2,2E0,2.3E1,3.7E1,1.01E2,3.6E1,6.1E1,2.466E3,6.62E2,2.7E1,1E0,2E0,2E0,8E0,9E0,2E0,2E0,5E0,4E0,3E0,6E0,2E0,6E0,2.1E1,2E0,5E0,1E0,2E0,2.3E1,7E0,6E0,2.7E1,1.3E1,2.1E1,4E0,5.8E1,3E0,1.1E1,1.8E1,2.9E1,7E0,1E0,1.51E2,1.5E1,7E0,1.6E1,3.4E1,3E0,7.9E1,2.2E1,4E0,3.2E1,3E1,3.1E1,1.5E1,2.451E3],"tree_param":{"num_deleted":"0","num_feature":"4","num_nodes":"103","size_leaf_vector":"1"}},{"base_weights":[1.5364021E-2,4.2163037E-2,-2.2296789E0,1.2537812E-2,4.0887322E0,-5.934156E0,-1.0358198E0,3.0271545E-1,-2.3221827E-1,-2.5274389E0,6.4144773E0,-7.4926095E0,-1.3337097E0,-2.8988643E0,7.836868E-1,3.4422953E-2,1.5256793E0,-3.1429E0,-1.4403185E-1,-9.8088497E-1,-2.0060413E-1,1.1534998E1,3.5972688E0,-2.0159398E-1,-8.370988E0,6.232518E-1,-1.7351035E0,-5.0947905E0,-1.3685046E-1,5.1707397E0,-1.1524563E0,1.6925336E-1,-5.890764E0,-1.9538174E0,2.527796E0,6.1348486E-1,-5.5960546E0,5.11734E0,-1.860298E-1,2.6818372E-2,-1.1709023E-1,2.5037894E-1,1.599877E1,3.536205E0,5.674696E-1,-2.7157292E0,-6.423506E-1,-3.054964E0,-1.9570873E0,2.5740085E0,-2.8203394E0,1.8215673E0,9.974757E-2,4.255718E-1,-1.561176E0,3.4394276E-1,-9.680125E-2,-2.9661634E0,-3.8291016E-1,1.6478892E-2,-3.0408633E0,3.0407548E-1,1.6253904E0,-1.1198851E0,4.4998064E0,-2.6350182E-1,-2.5288558E0,-5.899794E-1,4.351861E0,-9.598395E-1,-4.1095857E-2,2.5565416E-1,-1.4298363E-1,5.8808594E0,2.118526E0,-1.6261191E0,4.8137537E-1,-1.1922468E0,-2.4331608E-1,-2.4230348E-1,1.086405E0,1.9332848E-1,-1.1542915E0,1.5470327E0,-1.6896784E-1],"categories":[],"categories_nodes":[],"categories_segments":[],"categories_sizes":[],"default_left":[0,0,0,0,0,0,0,0,0,0,0,0,0,0,0,0,0,0,0,0,0,0,0,0,0,0,0,0,0,0,0,0,0,0,0,0,0,0,0,0,0,0,0,0,0,0,0,0,0,0,0,0,0,0,0,0,0,0,0,0,0,0,0,0,0,0,0,0,0,0,0,0,0,0,0,0,0,0,0,0,0,0,0,0,0],"id":14,"left_children":[1,3,5,7,9,11,13,15,17,19,21,23,25,27,29,31,33,35,37,-1,39,41,43,-1,45,-1,-1,47,49,51,53,55,57,59,61,63,65,67,69,-1,-1,71,73,-1,75,-1,-1,77,-1,79,81,-1,-1,83,-1,-1,-1,-1,-1,-1,-1,-1,-1,-1,-1,-1,-1,-1,-1,-1,-1,-1,-1,-1,-1,-1,-1,-1,-1,-1,-1,-1,-1,-1,-1],"loss_changes":[2.3461693E2,4.6184842E2,1.9729398E2,2.7180328E2,4.4706296E2,6.887244E1,1.24305374E2,5.744717E2,5.324203E2,1.31595E1,2.614425E2,4.230362E1,7.2734825E1,1.08476E2,1.6734433E2,1.1490098E3,1.1033002E3,5.655476E2,4.4642123E2,0E0,1.9992608E-1,3.4859796E2,3.6552557E2,0E0,1.0334045E1,0E0,0E0,9.216278E0,7.273061E1,2.4141098E1,9.172116E1,6.7626135E2,5.774984E2,1.1675381E3,1.0667094E3,1.619173E3,4.8719263E2,1.0926898E3,2.9528912E2,0E0,0E0,1.7186724E0,2.2618774E1,0E0,8.321875E1,0E0,0E0,9.152256E0,0E0,2.0633785E1,2.0276287E1,0E0,0E0,5.4364677E1,0E0,0E0,0E0,0E0,0E0,0E0,0E0,0E0,0E0,0E0,0E0,0E0,0E0,0E0,0E0,0E0,0E0,0E0,0E0,0E0,0E0,0E0,0E0,0E0,0E0,0E0,0E0,0E0,0E0,0E0,0E0],"parents":[2147483647,0,0,1,1,2,2,3,3,4,4,5,5,6,6,7,7,8,8,9,9,10,10,11,11,12,12,13,13,14,14,15,15,16,16,17,17,18,18,20,20,21,21,22,22,24,24,27,27,28,28,29,29,30,30,31,31,32,32,33,33,34,34,35,35,36,36,37,37,38,38,41,41,42,42,44,44,47,47,49,49,50,50,53,53],"right_children":[2,4,6,8,10,12,14,16,18,20,22,24,26,28,30,32,34,36,38,-1,40,42,44,-1,46,-1,-1,48,50,52,54,56,58,60,62,64,66,68,70,-1,-1,72,74,-1,76,-1,-1,78,-1,80,82,-1,-1,84,-1,-1,-1,-1,-1,-1,-1,-1,-1,-1,-1,-1,-1,-1,-1,-1,-1,-1,-1,-1,-1,-1,-1,-1,-1,-1,-1,-1,-1,-1,-1],"split_conditions":[4.69E1,3.92E1,1.5067166E1,1.8472595E1,3.695888E1,3.37665E2,2.3667091E1,1.6946787E1,1.8775301E1,2.4708834E1,1.7078111E2,1.4328976E1,8.78175E0,6.962876E1,5.84E1,1.680857E1,8.102584E0,1.5256749E1,1.8847641E1,-9.8088497E-1,2.5555922E1,1.8E1,2.167487E1,-2.0159398E-1,9.149999E1,6.232518E-1,-1.7351035E0,5.84E1,6.8E1,2.1053835E1,3.4457413E2,1.04192505E1,1.6191287E2,6.60675E0,1.8339482E2,1.4000001E0,5E-1,4E-1,1.90392E1,2.6818372E-2,-1.1709023E-1,1.9001753E1,1.9103834E1,3.536205E0,1.7539146E2,-2.7157292E0,-6.423506E-1,5.3399998E1,-1.9570873E0,2.140175E1,1.8896334E1,1.8215673E0,9.974757E-2,2.6124195E1,-1.561176E0,3.4394276E-1,-9.680125E-2,-2.9661634E0,-3.8291016E-1,1.6478892E-2,-3.0408633E0,3.0407548E-1,1.6253904E0,-1.1198851E0,4.4998064E0,-2.6350182E-1,-2.5288558E0,-5.899794E-1,4.351861E0,-9.598395E-1,-4.1095857E-2,2.5565416E-1,-1.4298363E-1,5.8808594E0,2.118526E0,-1.6261191E0,4.8137537E-1,-1.1922468E0,-2.4331608E-1,-2.4230348E-1,1.086405E0,1.9332848E-1,-1.1542915E0,1.5470327E0,-1.6896784E-1],"split_indices":[1,1,0,2,3,3,2,2,2,0,3,3,0,3,1,2,0,0,2,0,0,2,2,0,1,0,0,1,1,0,3,0,3,0,3,1,1,1,2,0,0,0,0,0,3,0,0,1,0,0,0,0,0,2,0,0,0,0,0,0,0,0,0,0,0,0,0,0,0,0,0,0,0,0,0,0,0,0,0,0,0,0,0,0,0],"split_type":[0,0,0,0,0,0,0,0,0,0,0,0,0,0,0,0,0,0,0,0,0,0,0,0,0,0,0,0,0,0,0,0,0,0,0,0,0,0,0,0,0,0,0,0,0,0,0,0,0,0,0,0,0,0,0,0,0,0,0,0,0,0,0,0,0,0,0,0,0,0,0,0,0,0,0,0,0,0,0,0,0,0,0,0,0],"sum_hessian":[3.897E3,3.852E3,4.5E1,3.825E3,2.7E1,1E1,3.5E1,1.75E3,2.075E3,7E0,2E1,7E0,3E0,1.7E1,1.8E1,1.436E3,3.14E2,6E1,2.015E3,5E0,2E0,6E0,1.4E1,1E0,6E0,2E0,1E0,9E0,8E0,5E0,1.3E1,1.405E3,3.1E1,7E1,2.44E2,2.4E1,3.6E1,1.5E1,2E3,1E0,1E0,2E0,4E0,3E0,1.1E1,5E0,1E0,5E0,4E0,4E0,4E0,4E0,1E0,1E1,3E0,4.7E2,9.35E2,1.6E1,1.5E1,5.7E1,1.3E1,1.61E2,8.3E1,1.9E1,5E0,1.4E1,2.2E1,9E0,6E0,3.1E1,1.969E3,1E0,1E0,2E0,2E0,1E0,1E1,3E0,2E0,1E0,3E0,1E0,3E0,1E0,9E0],"tree_param":{"num_deleted":"0","num_feature":"4","num_nodes":"85","size_leaf_vector":"1"}},{"base_weights":[1.13039445E-2,1.802378E-1,-4.115721E-1,5.733613E-1,-1.7361581E-1,-3.51407E0,-2.2833402E-1,-9.0761945E-2,1.5792065E0,-7.285116E0,-5.5298895E-2,-4.506806E0,1.2007302E1,5.251706E0,-3.1266606E-1,1.3757214E-1,-6.858255E0,4.8421607E0,5.687947E-1,-1.2727656E1,3.199967E0,8.4551495E-1,-5.089291E-1,-5.3054136E-1,-7.2182293E0,4.2861686E0,7.7512896E-1,1.0373585E1,-5.01369E0,-4.0186915E-1,4.022201E0,-7.56575E-2,5.2300105E0,3.9291801E0,-8.998206E0,6.276183E0,-2.0917695E0,-1.08834065E-1,4.083714E0,-4.6578016E0,-4.791701E0,-3.0510798E0,6.142529E0,4.868713E0,4.9181488E-1,2.1086498E-1,-1.8670118E0,-2.129611E0,6.2916594E0,-2.4990451E0,-1.024535E1,-3.9686713E-1,1.9415106E1,-1.3893153E1,2.8993297E0,-5.2393705E-1,2.3752959E0,-1.0855738E0,7.2489533E0,3.9183296E-2,-1.2356131E0,8.7754077E-1,4.9890995E0,4.934694E0,-2.9701035E0,-3.435022E0,4.8844805E-1,1.5341281E0,4.972603E0,-2.8500967E0,1.8541348E0,5.0925206E-2,-2.3073597E0,4.407762E0,6.0980446E-3,6.7668575E-1,-1.947483E0,3.1452518E0,8.8438594E-1,6.133024E-1,3.8564868E0,-2.0016165E0,2.2182658E-1,3.2988273E-2,4.784891E0,-8.499631E-1,1.85922E-1,-1.1987363E0,9.605386E-1,4.8057348E-1,2.1190858E0,-1.4833964E0,2.6794832E0,-4.0412116E0,-1.8265799E0,8.794629E-1,-2.5558376E0,8.452229E0,2.3976269E0,-5.0256314E0,-1.2262877E0,2.7504E0,-2.3860025E0,-4.9495198E-2,-4.7609797E-1,1.8846523E0,-1.6009066E0,-1.4976474E0,2.5174942E0,2.9108553E0,4.1464442E-1],"categories":[],"categories_nodes":[],"categories_segments":[],"categories_sizes":[],"default_left":[0,0,0,0,0,0,0,0,0,0,0,0,0,0,0,0,0,0,0,0,0,0,0,0,0,0,0,0,0,0,0,0,0,0,0,0,0,0,0,0,0,0,0,0,0,0,0,0,0,0,0,0,0,0,0,0,0,0,0,0,0,0,0,0,0,0,0,0,0,0,0,0,0,0,0,0,0,0,0,0,0,0,0,0,0,0,0,0,0,0,0,0,0,0,0,0,0,0,0,0,0,0,0,0,0,0,0,0,0,0,0],"id":15,"left_children":[1,3,5,7,9,11,13,15,17,19,21,23,25,27,29,31,33,35,37,39,41,43,45,47,49,-1,-1,51,53,55,57,59,61,63,65,67,69,71,73,75,-1,-1,77,79,81,83,85,87,89,91,93,95,97,99,101,103,105,107,109,-1,-1,-1,-1,-1,-1,-1,-1,-1,-1,-1,-1,-1,-1,-1,-1,-1,-1,-1,-1,-1,-1,-1,-1,-1,-1,-1,-1,-1,-1,-1,-1,-1,-1,-1,-1,-1,-1,-1,-1,-1,-1,-1,-1,-1,-1,-1,-1,-1,-1,-1,-1],"loss_changes":[2.7853983E2,3.876549E2,6.319334E2,8.8191016E2,1.2339468E3,1.0094494E3,4.8781628E2,1.2309619E3,1.7281328E3,1.4102997E3,5.9050116E2,6.322693E2,4.9025085E1,8.932599E2,4.0260727E2,8.375928E2,6.355547E2,1.2461108E3,9.579323E2,3.4454956E2,4.1655582E2,6.863401E2,9.3980945E2,2.8612814E2,4.7439026E2,0E0,0E0,1.0788993E3,4.6186102E2,3.4601038E2,3.5398126E2,6.1849817E2,7.659196E2,1.028565E3,5.918406E2,1.148352E3,1.40699E3,7.1527356E2,2.801706E3,9.0709915E1,0E0,0E0,8.005081E1,8.534086E2,7.9605896E2,9.971649E2,8.0185364E2,2.2172998E2,6.7861786E0,4.634875E2,1.995293E2,1.8718706E2,3.751543E2,1.5624268E1,3.4504352E2,3.717858E2,1.3290486E3,3.7510452E2,1.737442E2,0E0,0E0,0E0,0E0,0E0,0E0,0E0,0E0,0E0,0E0,0E0,0E0,0E0,0E0,0E0,0E0,0E0,0E0,0E0,0E0,0E0,0E0,0E0,0E0,0E0,0E0,0E0,0E0,0E0,0E0,0E0,0E0,0E0,0E0,0E0,0E0,0E0,0E0,0E0,0E0,0E0,0E0,0E0,0E0,0E0,0E0,0E0,0E0,0E0,0E0,0E0,0E0],"parents":[2147483647,0,0,1,1,2,2,3,3,4,4,5,5,6,6,7,7,8,8,9,9,10,10,11,11,12,12,13,13,14,14,15,15,16,16,17,17,18,18,19,19,20,20,21,21,22,22,23,23,24,24,27,27,28,28,29,29,30,30,31,31,32,32,33,33,34,34,35,35,36,36,37,37,38,38,39,39,42,42,43,43,44,44,45,45,46,46,47,47,48,48,49,49,50,50,51,51,52,52,53,53,54,54,55,55,56,56,57,57,58,58],"right_children":[2,4,6,8,10,12,14,16,18,20,22,24,26,28,30,32,34,36,38,40,42,44,46,48,50,-1,-1,52,54,56,58,60,62,64,66,68,70,72,74,76,-1,-1,78,80,82,84,86,88,90,92,94,96,98,100,102,104,106,108,110,-1,-1,-1,-1,-1,-1,-1,-1,-1,-1,-1,-1,-1,-1,-1,-1,-1,-1,-1,-1,-1,-1,-1,-1,-1,-1,-1,-1,-1,-1,-1,-1,-1,-1,-1,-1,-1,-1,-1,-1,-1,-1,-1,-1,-1,-1,-1,-1,-1,-1,-1,-1],"split_conditions":[3.2389243E2,1.8542166E1,3.2889432E2,1.8756458E2,1.8771332E1,2.1900003E1,3.301621E2,1.8503221E2,2.0373584E2,1.8229382E2,2E-1,5.422584E0,2.9300003E1,1.15255E1,2.5555922E1,1.8019228E2,8.344251E0,3.924165E1,2.5E0,4.5072502E1,8.161764E0,1.1298495E1,1.7757156E2,1.2000002E0,1.6418526E1,4.2861686E0,7.7512896E-1,5.055917E0,1.3078834E1,4.1556225E1,5E-1,1.7191493E2,1.7754667E1,1.8636995E2,3.3E0,3.590086E1,1.9461565E2,1.9E0,4.4E0,1.3979872E1,-4.791701E0,-3.0510798E0,1.8636995E2,1.0661107E1,1.1966954E1,1.7710147E2,2.7087997E1,3.5455887E1,3.250318E2,1.6299694E1,7E-1,4.2746673E0,6.98175E0,1.2127583E1,1.6883001E1,3.00767E1,8.522584E0,3.5069086E2,2.2461807E1,3.9183296E-2,-1.2356131E0,8.7754077E-1,4.9890995E0,4.934694E0,-2.9701035E0,-3.435022E0,4.8844805E-1,1.5341281E0,4.972603E0,-2.8500967E0,1.8541348E0,5.0925206E-2,-2.3073597E0,4.407762E0,6.0980446E-3,6.7668575E-1,-1.947483E0,3.1452518E0,8.8438594E-1,6.133024E-1,3.8564868E0,-2.0016165E0,2.2182658E-1,3.2988273E-2,4.784891E0,-8.499631E-1,1.85922E-1,-1.1987363E0,9.605386E-1,4.8057348E-1,2.1190858E0,-1.4833964E0,2.6794832E0,-4.0412116E0,-1.8265799E0,8.794629E-1,-2.5558376E0,8.452229E0,2.3976269E0,-5.0256314E0,-1.2262877E0,2.7504E0,-2.3860025E0,-4.9495198E-2,-4.7609797E-1,1.8846523E0,-1.6009066E0,-1.4976474E0,2.5174942E0,2.9108553E0,4.1464442E-1],"split_indices":[3,0,3,3,0,1,3,3,3,3,1,0,1,0,0,3,0,2,1,3,2,2,3,1,2,0,0,0,0,2,1,3,0,3,1,2,3,1,1,2,0,0,3,2,2,3,0,2,3,2,1,0,0,0,0,2,0,3,2,0,0,0,0,0,0,0,0,0,0,0,0,0,0,0,0,0,0,0,0,0,0,0,0,0,0,0,0,0,0,0,0,0,0,0,0,0,0,0,0,0,0,0,0,0,0,0,0,0,0,0,0],"split_type":[0,0,0,0,0,0,0,0,0,0,0,0,0,0,0,0,0,0,0,0,0,0,0,0,0,0,0,0,0,0,0,0,0,0,0,0,0,0,0,0,0,0,0,0,0,0,0,0,0,0,0,0,0,0,0,0,0,0,0,0,0,0,0,0,0,0,0,0,0,0,0,0,0,0,0,0,0,0,0,0,0,0,0,0,0,0,0,0,0,0,0,0,0,0,0,0,0,0,0,0,0,0,0,0,0,0,0,0,0,0,0],"sum_hessian":[3.897E3,2.785E3,1.112E3,1.319E3,1.466E3,6.1E1,1.051E3,7.95E2,5.24E2,2.3E1,1.443E3,5.8E1,3E0,1.5E1,1.036E3,7.7E2,2.5E1,1.23E2,4.01E2,1.5E1,8E0,4.83E2,9.6E2,2.4E1,3.4E1,2E0,1E0,1E1,5E0,1.016E3,2E1,7.4E2,3E1,4E0,2.1E1,1.02E2,2.1E1,3.37E2,6.4E1,5E0,1E1,1E0,7E0,3.8E1,4.45E2,6.28E2,3.32E2,2E1,4E0,1.4E1,2E1,5E0,5E0,2E0,3E0,9.74E2,4.2E1,8E0,1.2E1,7.05E2,3.5E1,2.6E1,4E0,2E0,2E0,1.7E1,4E0,9.3E1,9E0,1.1E1,1E1,3.26E2,1.1E1,1.7E1,4.7E1,1E0,4E0,2E0,5E0,2.9E1,9E0,1.4E1,4.31E2,6.25E2,3E0,2.39E2,9.3E1,1.5E1,5E0,1E0,3E0,1.2E1,2E0,1E1,1E1,4E0,1E0,2E0,3E0,1E0,1E0,2E0,1E0,7.29E2,2.45E2,2.8E1,1.4E1,6E0,2E0,8E0,4E0],"tree_param":{"num_deleted":"0","num_feature":"4","num_nodes":"111","size_leaf_vector":"1"}},{"base_weights":[1.3878623E-2,-8.2181174E-1,8.127663E-2,-1.2355505E0,1.2984816E0,1.4582273E0,3.3077817E-2,-8.2869756E-1,-8.401269E0,2.3610368E-1,8.695777E0,-2.6628584E-1,4.2157755E0,-1.3094505E0,1.078333E-1,-5.422067E-1,-5.613258E0,-1.1081825E1,4.227861E0,1.0610527E0,-4.1580706E0,4.380476E0,-2.0772274E0,3.1324658E0,-2.096286E0,2.1150303E-1,9.610969E0,-3.6328516E0,1.16180256E-1,2.3786744E-1,-5.0456893E-1,3.1248364E-1,-2.2327104E0,-6.5249004E0,7.989676E-1,-8.439293E-1,-1.3263144E1,3.1277971E0,-1.2252598E0,-1.084627E0,4.2803583E0,5.26144E-1,-6.8735867E0,-1.5324264E0,5.97674E-1,9.866412E-1,1.5224298E1,-3.0784776E0,7.3591337E0,2.0293558E0,-4.586798E0,1.2858557E1,1.7427968E0,-1.0827026E-1,-9.2420635E0,5.972132E0,-7.7634954E-1,1.509562E-1,6.070183E0,5.251146E0,-7.092292E-1,-5.8179814E-1,3.9748278E-1,-2.7426634E0,-5.1218367E-1,-2.402515E0,1.7850247E-1,-8.488564E-1,4.690882E-1,-4.4578114E0,-1.5352702E0,4.1634545E-1,-1.5254564E0,1.846238E0,-2.0940125E-1,-2.6198049E0,-8.169886E-1,-8.2803935E-1,1.1580179E0,5.1438165E-1,5.746798E0,-1.2412416E0,2.0015478E-1,4.051945E0,-3.7237835E-1,8.032139E-2,3.752945E0,4.9229994E-1,-2.5955033E0,4.830351E0,-1.3194227E0,-2.2082596E0,2.0569305E0,-6.9302356E-1,